{"n_layers": 5, "weights": [[[-0.7252034544944763, 2.385615348815918, -0.7266131043434143, 0.39603009819984436, -1.8881618976593018, -3.0564029216766357, -0.7612050771713257, -0.7344207763671875, 0.6150500178337097, 1.0177468061447144, 2.889275312423706, -0.6433297991752625, -0.05242941528558731, 0.26375019550323486, -1.3290495872497559, -0.9375979900360107, 2.3489067554473877, -1.437563180923462, -0.07990611344575882, -0.7305011749267578, -1.6794105768203735, 1.966030240058899, 1.4424649477005005, 0.4184386134147644, -0.03367127850651741, -1.4593135118484497, -1.476630449295044, 0.9225865006446838, -0.9631641507148743, 0.22901120781898499, 0.8919169306755066, 1.992292046546936], [0.7147157788276672, 0.671355128288269, -0.4499090313911438, 0.11118176579475403, 2.433793544769287, -2.7303411960601807, 2.0184943675994873, 1.0822362899780273, 0.1139872595667839, 0.9320508241653442, 1.44960355758667, 0.4958394169807434, 0.6214109063148499, -2.8151473999023438, 0.907849907875061, 0.6289897561073303, -0.7206705212593079, 1.1210243701934814, 0.5944162011146545, 0.7160163521766663, 1.7493774890899658, -0.259171724319458, -0.218413844704628, -1.2416939735412598, 0.5218560695648193, 0.09188980609178543, 0.037828683853149414, 0.2705693244934082, 0.03434435650706291, -0.18895317614078522, -0.1982567459344864, -0.9554201364517212], [0.444936603307724, -1.617220401763916, -1.4116616249084473, 0.8019206523895264, -2.541341543197632, 1.5354244709014893, -0.9543461799621582, 0.5488919615745544, -0.3924301862716675, -1.0608651638031006, -1.9987907409667969, -1.424106478691101, 0.44706031680107117, 1.0097216367721558, -0.5090181827545166, 1.9468457698822021, -0.39972591400146484, 0.5715739727020264, 1.3628672361373901, -0.22407080233097076, 0.7406067252159119, 0.49237939715385437, 0.421642929315567, 1.8886839151382446, 0.1271081268787384, 1.805496335029602, -0.09720731526613235, 0.24023738503456116, 0.8330608010292053, 0.39158642292022705, -1.1729053258895874, 0.6299687623977661], [0.44156980514526367, -0.49892961978912354, -1.3260838985443115, -1.325608253479004, -2.5425662994384766, 0.8583734035491943, 2.8424735069274902, 0.23835262656211853, 2.2319765090942383, -0.9673514366149902, 0.38671794533729553, -1.3608570098876953, 0.24441461265087128, -0.7863079905509949, -0.7326174378395081, -0.5601933002471924, -0.20783661305904388, -0.22661066055297852, -0.44514697790145874, -0.510320782661438, -1.5885424613952637, -1.288000226020813, -1.196128010749817, 1.2170685529708862, 0.12307138741016388, -1.9050250053405762, 0.5628675818443298, 0.7156487703323364, 0.7485966682434082, 0.422282338142395, -0.6056922674179077, -0.3820771872997284], [-0.50832200050354, 0.22112810611724854, -0.477252334356308, -0.17537468671798706, 1.677181363105774, -3.058100700378418, -0.5575218200683594, -0.05399442836642265, -2.175577402114868, -0.46576765179634094, -0.27415239810943604, 0.8838845491409302, -0.09451054036617279, 0.10667002201080322, 0.35263556241989136, -0.950825035572052, 0.0977984219789505, 0.37970003485679626, -0.5119695067405701, 0.10254212468862534, -0.129145547747612, 0.9181739091873169, 0.12000060826539993, -1.494651198387146, 0.22264830768108368, 0.3120725750923157, -0.29054585099220276, 1.6400015354156494, 0.46270841360092163, -0.06917129456996918, -1.5882993936538696, -1.1639400720596313], [1.035530686378479, 1.5199718475341797, -1.8890639543533325, -1.8409173488616943, 0.47648632526397705, 1.2585700750350952, 0.9099628329277039, 1.1976333856582642, -2.6044485569000244, 0.9929014444351196, -1.146276593208313, -0.7188242673873901, -0.8045974969863892, 0.2939603626728058, 0.2671024203300476, -0.25909802317619324, -0.5696352124214172, -0.7565833926200867, 1.823387622833252, 0.7348625063896179, -0.1562708169221878, -0.4940261244773865, -1.4068535566329956, -2.197859287261963, -0.8249095678329468, -0.023445364087820053, -2.7397732734680176, -0.8530060648918152, -0.6964843273162842, -0.40358686447143555, 0.40916699171066284, -0.46975216269493103], [0.5032645463943481, 1.2314558029174805, -0.5420364141464233, 1.3021771907806396, -0.6779842972755432, -0.7906052470207214, 0.09891480207443237, -0.7117884755134583, 0.7875989675521851, 0.11209103465080261, 0.28493717312812805, 1.0439496040344238, -0.5708290934562683, 0.46394920349121094, -0.5634753704071045, -0.0799202099442482, 1.0142215490341187, 1.4880714416503906, 1.2094578742980957, -0.26064127683639526, -0.808081865310669, -0.1611148864030838, 0.10934782028198242, 0.25057870149612427, -0.701969563961029, 1.154893159866333, 2.0420055389404297, 0.7781218886375427, 1.001889705657959, 0.6472610235214233, 1.1279528141021729, -0.34956055879592896], [-0.898573100566864, 1.1015245914459229, -0.3424840569496155, -1.5410571098327637, -0.36851269006729126, -0.8326576352119446, -0.5037925243377686, 1.3792294263839722, 1.5619370937347412, 1.3166714906692505, -0.17846985161304474, 0.8918295502662659, 0.8357802629470825, 0.5237569808959961, -0.8529531955718994, 0.8831390142440796, -1.4501659870147705, -0.9501429796218872, 1.181519627571106, -0.10496821254491806, 1.4261337518692017, -0.38723623752593994, 0.6877411603927612, 0.1198374330997467, 1.3232380151748657, 1.9438045024871826, 2.3618860244750977, -0.11838292330503464, -0.6350644826889038, -1.6298860311508179, -0.12008722871541977, -0.6326037645339966], [0.8717203736305237, -0.3603339195251465, -1.3190736770629883, -1.4240455627441406, 0.4286201596260071, -0.4889678359031677, 0.14911538362503052, 1.2909128665924072, -1.2631125450134277, -0.5832653045654297, 0.4714954197406769, -0.6092419028282166, 0.7415174841880798, 0.34256821870803833, 0.8191876411437988, -1.1849578619003296, 0.11938025802373886, -0.7526580095291138, 0.3795366883277893, 0.24218913912773132, 0.5123963952064514, -0.18799377977848053, -0.04747798293828964, -1.2998675107955933, 0.9202197194099426, -2.496778964996338, -1.0456938743591309, -1.8969107866287231, -0.16281351447105408, -0.6183003187179565, -0.20742812752723694, 0.717255175113678], [0.3879416882991791, -1.8190807104110718, -0.1638067662715912, 0.8304533958435059, 0.04805988818407059, 1.4691787958145142, -0.31236132979393005, 1.2857704162597656, -0.060225337743759155, 0.2096071094274521, 1.4897948503494263, 0.9174266457557678, 2.461091995239258, 0.0599912591278553, 1.166947364807129, 1.2372958660125732, -0.6611660718917847, 1.5305427312850952, -1.185967206954956, -0.8647485971450806, 1.4813039302825928, 0.5189787149429321, 0.8675563335418701, 0.9254669547080994, -0.23699894547462463, -1.4629480838775635, -0.9459563493728638, 0.6243499517440796, 0.18624365329742432, -1.3106645345687866, -0.4222094714641571, -0.1315135359764099], [1.541896104812622, 0.5460981726646423, -0.18938417732715607, 1.1339644193649292, 0.5855278968811035, -0.1707211583852768, 0.8996613025665283, 0.3612900376319885, -0.065482959151268, 0.05224393680691719, -2.106163740158081, 0.19134783744812012, 0.15080437064170837, 0.2401243895292282, -0.3883252441883087, -1.0939013957977295, 0.2537098526954651, -0.11417610943317413, -1.4349321126937866, -1.0968767404556274, 1.206251621246338, 0.37122488021850586, 0.5958094596862793, 1.5607911348342896, -0.6258078813552856, 0.30157187581062317, 1.1904568672180176, 0.8715815544128418, -1.5607737302780151, -0.3764793276786804, -3.3374462127685547, 1.4173884391784668], [1.1799396276474, -0.6574380397796631, -1.236225962638855, -1.1605945825576782, 1.0134925842285156, -1.225715160369873, -0.5984320044517517, 0.046086385846138, 0.6853008270263672, 0.18803036212921143, -0.8545054793357849, -1.2331534624099731, 0.5852774977684021, -0.6309146881103516, 1.4326791763305664, 1.0136706829071045, 1.7136963605880737, -1.179062843322754, 0.045590173453092575, -0.37814784049987793, -0.30485019087791443, 0.6413775682449341, -1.0138866901397705, -0.2659350037574768, -1.6092861890792847, -0.4723074436187744, 1.7589592933654785, -0.4176988899707794, -0.7122140526771545, -0.5420270562171936, -0.9501212239265442, 0.7643074989318848], [-1.4482333660125732, -0.27191027998924255, 0.4827266335487366, -0.4891640543937683, -1.3101098537445068, -1.4465465545654297, -0.303158700466156, -0.5757841467857361, -0.3558318018913269, -1.6306003332138062, 1.047066569328308, 0.7483264803886414, -0.09014130383729935, 0.7528724074363708, -0.4902201294898987, 0.49478867650032043, -0.08171271532773972, 1.1003179550170898, -1.1989456415176392, 0.32963916659355164, 0.8506143689155579, 0.9351544976234436, 0.014973901212215424, -0.6336072087287903, -0.3149394690990448, -0.9288128018379211, 1.055472493171692, 1.3757816553115845, 1.5702135562896729, -0.961272120475769, -1.2515308856964111, -1.0677543878555298], [0.350959837436676, 0.12836021184921265, 1.4921391010284424, 0.5076152086257935, 0.8751797080039978, -0.003929836209863424, -0.15788979828357697, -0.512845516204834, -0.24889424443244934, -0.3221419155597687, -0.21446320414543152, 0.24151207506656647, 0.6065424680709839, 0.5447381734848022, -1.4135773181915283, -0.7394990921020508, -1.0095587968826294, -1.838616967201233, 0.6444345116615295, 0.9236329197883606, 0.8952127695083618, -3.021724224090576, 1.4257084131240845, 0.9647738337516785, -0.9137228727340698, -0.7420104146003723, -1.3815560340881348, 2.082437753677368, 2.571578025817871, 1.0799694061279297, -1.6757447719573975, -0.11527092754840851], [-0.3511270582675934, -0.8870159387588501, 0.32841330766677856, 0.3789539337158203, 0.23200249671936035, 0.2425486147403717, -0.6061164140701294, 0.008939347229897976, -0.006561282090842724, 0.32405799627304077, 0.07825298607349396, -1.0793757438659668, -0.04782852157950401, -1.3218677043914795, 0.336187481880188, 1.5846765041351318, 0.9195271134376526, 1.2757978439331055, 0.3657867908477783, -0.14487232267856598, 0.987148106098175, 1.1118851900100708, 0.8075140714645386, -0.18584658205509186, 1.7235803604125977, -0.21930165588855743, 0.03038628399372101, -1.2787549495697021, -0.5268973112106323, 1.3636987209320068, 0.6186382174491882, -0.3320175111293793], [1.7374465465545654, 0.29387223720550537, 0.38959577679634094, 0.40166860818862915, 0.15809178352355957, 0.5722104907035828, -0.08122961968183517, 0.41269218921661377, -0.21634352207183838, -1.1939247846603394, 0.9263565540313721, 0.18289338052272797, -0.7591210603713989, 0.47094088792800903, -0.8655250668525696, 0.6875256896018982, -0.39207178354263306, -1.00819730758667, 1.5976874828338623, -0.543990969657898, -0.1353989690542221, 1.2398015260696411, -0.03390021249651909, -0.15824857354164124, -0.7351576685905457, 0.8181447386741638, 0.2871549129486084, -0.2587447464466095, -0.5821043252944946, 3.4620234966278076, -1.4897770881652832, -0.8590319156646729], [-0.05240923911333084, -0.83646160364151, 0.61177659034729, -0.22709737718105316, 0.16904841363430023, 0.3731437921524048, -0.1167701706290245, 0.4869137704372406, 1.4539321660995483, 0.2641470432281494, 0.31946420669555664, 1.1400537490844727, 0.6274212002754211, 0.8519544005393982, -0.7935841083526611, 0.14780350029468536, 1.1871153116226196, -0.012008113786578178, 1.1654497385025024, 0.3869466185569763, -0.6253366470336914, -0.01881997287273407, -0.13288293778896332, 0.6045593619346619, -0.08360567688941956, -1.1764510869979858, 0.4627973735332489, -0.010512171313166618, 0.8958366513252258, -1.9311552047729492, -0.3385980725288391, 0.4136059880256653], [0.734276533126831, 1.5827560424804688, 1.0985207557678223, 0.5959526896476746, 0.33253413438796997, 1.4638644456863403, -0.22598397731781006, 0.050760652869939804, 1.706156611442566, 1.1197668313980103, -0.345863938331604, 0.9140551686286926, -1.504636287689209, 1.1546471118927002, 0.3959231674671173, -0.770929753780365, 1.9443318843841553, -0.46602511405944824, 0.8113812804222107, -1.4985774755477905, -0.4832242727279663, 0.3941849172115326, -0.06452532112598419, -0.4127216041088104, -0.10067270696163177, -0.12838850915431976, -0.5629284381866455, -0.14879338443279266, 0.8573428988456726, -1.862311601638794, -0.3280726373195648, -0.5563305616378784], [0.25768527388572693, 1.1729670763015747, 1.8195563554763794, 0.1370043009519577, 1.0521233081817627, 1.4667264223098755, 0.19824692606925964, 0.4167228937149048, -0.4759507477283478, 1.1623034477233887, -0.043302811682224274, -0.60341477394104, -1.704765796661377, -0.5592091083526611, 0.28441134095191956, 0.8677377700805664, 1.4235548973083496, 0.3841125965118408, 1.0910565853118896, 0.6143258810043335, 0.5042045712471008, 0.0352504588663578, -0.9552173018455505, -0.07179038971662521, -1.7095530033111572, 0.2893175184726715, -0.40776777267456055, -1.268338680267334, -0.26194408535957336, 2.4350638389587402, -1.741787075996399, 0.35348910093307495], [-0.09865763783454895, 0.07516889274120331, -0.12693123519420624, -0.1318693608045578, -0.012573067098855972, 1.1650426387786865, -0.7030239105224609, -1.24370539188385, -1.3606749773025513, -0.3253153860569, -0.4455130398273468, 0.32926681637763977, 0.04273267090320587, 0.2772579789161682, 0.8165368437767029, 0.23979726433753967, -0.4691545367240906, -1.6439509391784668, -1.971379280090332, 0.8385760188102722, -2.003310441970825, 2.283541440963745, -0.2521324157714844, -0.10144784301519394, -0.8956407308578491, 0.3563776910305023, 0.8680757284164429, -1.056574821472168, -2.1189544200897217, 1.8922924995422363, -0.25038832426071167, 0.6991360187530518], [-1.4373416900634766, 0.31352511048316956, -1.7011404037475586, -0.35516345500946045, -0.5818751454353333, -0.10907313227653503, 0.23323562741279602, -0.002372187562286854, -0.06784914433956146, 0.7825479507446289, -1.2701008319854736, -1.5625827312469482, 0.1393696814775467, -1.1787315607070923, -0.29519426822662354, 1.2003204822540283, -1.1406089067459106, -1.513724684715271, 2.2369885444641113, 0.3062708079814911, -0.5645570755004883, 0.8225003480911255, -1.3001720905303955, -0.8493527770042419, 1.2590949535369873, 0.442577064037323, -0.8412840962409973, -0.6103355288505554, 1.7140119075775146, 0.47296643257141113, -0.033829811960458755, -0.5297256708145142], [-0.052096445113420486, 0.8860549926757812, -1.7394263744354248, 0.6836549043655396, 0.7090686559677124, 0.3519132435321808, -1.642338514328003, 0.10223886370658875, -0.2679789364337921, 1.938370943069458, 0.1356220692396164, -0.64264976978302, -0.3224438726902008, -2.76753568649292, -1.7567285299301147, 0.13464462757110596, -0.5135928392410278, -0.9433956742286682, -1.2587147951126099, 0.16056139767169952, 1.7494759559631348, 0.5192644000053406, 1.0558360815048218, 1.1367523670196533, -0.5126612186431885, -0.6455795168876648, 0.7648616433143616, 1.834453821182251, 0.8431190848350525, -0.2554980218410492, 1.8628534078598022, 0.06970585882663727], [-0.6055895090103149, -0.7514914274215698, -0.3712703287601471, -0.6123386025428772, -0.16604553163051605, 0.10176671296358109, 1.3573905229568481, -0.2965593636035919, 0.5286943316459656, -0.27732548117637634, 0.634175717830658, 0.3329969048500061, -0.17230956256389618, -0.2662559449672699, -0.13073809444904327, -0.6974702477455139, 0.988149106502533, 0.376680463552475, -0.3429846167564392, 0.8170709013938904, 0.7542732954025269, 1.3359675407409668, 1.0011183023452759, -0.8406217098236084, -0.2650749087333679, -1.7759525775909424, -0.716450572013855, 0.5237554311752319, -0.7415117025375366, 0.4630914628505707, -0.352180540561676, 0.8390308022499084], [0.5708106756210327, -0.12020666897296906, 1.079469084739685, 1.5664886236190796, 0.627011239528656, 2.183159351348877, -0.20792314410209656, -0.24442994594573975, -0.9833806753158569, 0.31627732515335083, 1.3193269968032837, 0.3302597105503082, 0.3671063184738159, -0.3335980176925659, -1.240055799484253, 1.2854204177856445, 1.6038144826889038, 1.039671540260315, 0.01982564851641655, 0.9058370590209961, -0.12364841252565384, 0.23273903131484985, -1.1517051458358765, 1.6195801496505737, -1.5738741159439087, -0.8460025787353516, 1.1463485956192017, 0.20074284076690674, -2.118553638458252, 1.6969459056854248, 0.6077024936676025, 1.5782427787780762], [-0.8106558322906494, -0.08638138324022293, 0.15634816884994507, 0.7085549831390381, -0.23603561520576477, 0.8482065796852112, -0.39498546719551086, -0.44703495502471924, 0.4885387420654297, -0.5087663531303406, -0.849415123462677, -1.2015217542648315, -0.9740891456604004, 0.22553442418575287, 1.7796263694763184, 0.6398620009422302, 0.1309046745300293, -0.2615797221660614, -0.49423477053642273, -1.82821524143219, -0.6099973917007446, -0.09547585994005203, 1.3492494821548462, 2.4243102073669434, -0.875871479511261, 1.3844342231750488, -0.9304570555686951, 0.5508907437324524, -0.369751513004303, -0.7746001482009888, 0.01534762978553772, -1.1533323526382446], [0.49156659841537476, 0.1294981986284256, -1.2158176898956299, 0.8854080438613892, 1.075310230255127, 0.03837773948907852, 1.1140822172164917, 1.6522846221923828, -1.6013990640640259, -0.6457133293151855, -0.8688468933105469, -1.2124402523040771, -0.4026638865470886, -0.8698387145996094, -1.4747034311294556, 0.9915278553962708, 1.3734859228134155, 0.7930365800857544, 0.27700886130332947, -2.534040689468384, 0.5191942453384399, -0.2965025305747986, 1.2012535333633423, 2.833920955657959, 0.5097387433052063, -1.153905987739563, 0.7227303385734558, 0.8729256391525269, 0.8562009334564209, 0.324240118265152, -0.570983350276947, 0.9463253617286682], [0.32336103916168213, 0.8952081799507141, 2.00454044342041, 0.09222667664289474, -0.05610600858926773, -0.3117483854293823, 1.0734914541244507, -1.1599345207214355, -0.22877727448940277, 0.7480711936950684, 1.0717064142227173, 0.7580804824829102, 1.148602843284607, 1.313920497894287, -0.9137411713600159, -0.44062793254852295, 1.0819839239120483, 0.9152659773826599, -0.3205292820930481, 1.3086411952972412, 1.1001300811767578, 0.20102432370185852, 0.39773476123809814, -0.8195873498916626, -0.19655051827430725, 4.048666954040527, -0.5629771947860718, -0.1190829649567604, 1.553666114807129, 0.037347808480262756, 0.6884908676147461, -0.7437591552734375], [-0.3082941472530365, -1.1240782737731934, -0.22425313293933868, 0.4980582594871521, -1.2126044034957886, -0.9096395373344421, -0.2002762258052826, 0.37594401836395264, 0.06879840791225433, -0.6540624499320984, -1.6269400119781494, 1.1651666164398193, 1.7031916379928589, 1.306594729423523, -0.12155438214540482, -0.45047205686569214, -1.9205012321472168, -0.19091632962226868, -0.7298420667648315, 1.795802354812622, -0.39903783798217773, -0.11059080064296722, -0.6964046359062195, -2.231647491455078, -1.3640072345733643, 0.4412566125392914, -0.8055684566497803, 0.23777659237384796, 0.14019346237182617, 0.08236202597618103, 1.1078407764434814, 0.35406628251075745], [-0.012538917362689972, 0.8124077916145325, 0.8093069195747375, -0.7341595888137817, 0.1946125030517578, 0.6570191979408264, -1.64924955368042, -2.4765281677246094, -0.011259902268648148, 0.7156240940093994, 1.27450692653656, -0.569348156452179, -0.3672207295894623, -1.0392405986785889, 1.5370033979415894, 0.8921741247177124, -0.11434197425842285, 0.3282475769519806, 1.5623540878295898, -0.8908194303512573, -0.21327582001686096, 0.35398250818252563, 0.666291356086731, 0.4225667417049408, -0.23257768154144287, -0.6252280473709106, -0.017846863716840744, -0.6661274433135986, -0.5358526110649109, 0.3314055800437927, 1.7649415731430054, -0.37885168194770813], [0.7764668464660645, -0.6931390166282654, 0.1742122620344162, 1.4846124649047852, -1.3377048969268799, -0.4086974263191223, 0.5286446809768677, 2.60833740234375, -1.3227159976959229, -0.039899829775094986, -0.28667280077934265, -0.5441009402275085, -0.32018354535102844, -1.0979787111282349, -0.15029707551002502, -1.1640846729278564, -1.5597962141036987, 2.1962738037109375, 1.1970772743225098, -2.0626912117004395, 0.7610833048820496, 1.9979662895202637, 1.1016480922698975, 0.2059021294116974, 0.43477749824523926, 0.2458573877811432, -0.2763012945652008, -1.0187023878097534, -0.16232220828533173, 1.3866811990737915, -1.6749589443206787, -0.570738673210144], [-0.037675272673368454, -1.200317621231079, -1.3603464365005493, 0.9398993849754333, 0.9903550148010254, 0.7891084551811218, 0.8261516094207764, 1.1199572086334229, -0.06486089527606964, 0.9975409507751465, -0.2844349443912506, -0.9629239439964294, 1.1887719631195068, -1.229799509048462, -0.11985840648412704, -1.0856791734695435, 1.2950743436813354, -0.17899644374847412, -1.145027995109558, 0.9570052623748779, 0.347877562046051, 0.39039522409439087, 0.7726989984512329, 1.2372719049453735, -0.5329391360282898, 0.4790375232696533, -0.9246669411659241, -0.5483777523040771, 0.6415438055992126, -0.5814700126647949, 1.4505212306976318, -0.5214395523071289], [0.35398411750793457, -0.5465759634971619, 1.346940040588379, 1.3412103652954102, 0.7037639617919922, -2.372466564178467, 0.6344892382621765, -0.2578262686729431, -0.17088651657104492, -1.0498297214508057, -2.402663230895996, 0.19703485071659088, 1.8820860385894775, -0.1816333532333374, -1.450160264968872, -0.4547615051269531, 1.8562825918197632, -0.6790462136268616, 2.0270543098449707, 0.550439715385437, -0.38247188925743103, -1.1270205974578857, -0.804044783115387, -0.36325788497924805, -0.9601248502731323, 0.293500691652298, -0.4792037606239319, 1.1371665000915527, -0.06822177022695541, 0.3836807608604431, 1.7713661193847656, -0.2525119185447693], [-0.31425634026527405, 0.7980862855911255, 0.28701111674308777, -0.8545910716056824, 0.5163061022758484, 0.7508792281150818, -0.29527419805526733, -1.070792317390442, 1.1963225603103638, 0.2117440402507782, 0.06003217399120331, 0.8944488167762756, -1.4150787591934204, 0.3830939531326294, 0.7997474074363708, -0.8445830941200256, -0.2639450132846832, -0.5607092976570129, 1.566046953201294, 0.028420882299542427, 1.2398099899291992, 0.16964806616306305, -0.5424521565437317, 0.7314650416374207, -0.43117547035217285, -1.010799527168274, 0.05087564140558243, 0.17533840239048004, 0.3281828761100769, 0.7819470167160034, 0.500971794128418, 0.775750458240509], [1.213938593864441, -0.3001362681388855, -2.1145217418670654, 0.6965241432189941, 1.427062749862671, 0.8147545456886292, 0.27908626198768616, -1.2248551845550537, -0.13571175932884216, 1.0764820575714111, -0.6514940857887268, 0.7096964120864868, -0.005382412578910589, 1.3137860298156738, 1.4246721267700195, -0.1587265133857727, -1.7705835103988647, -0.22163964807987213, 0.8340535163879395, -0.8932493329048157, 2.3469600677490234, 0.052642568945884705, 0.9178076982498169, 1.3837887048721313, -2.1017847061157227, 0.5614038109779358, 0.5612695217132568, 1.1664296388626099, 0.7636249661445618, 1.3246484994888306, 0.29028087854385376, 3.0259907245635986], [0.6243204474449158, 0.7829099297523499, -1.9206725358963013, 0.30260977149009705, -0.34065359830856323, 0.5468564629554749, 1.2124300003051758, 0.3819805085659027, -1.707440972328186, 0.9012407064437866, -0.5892471075057983, -0.10986156761646271, 1.4921255111694336, 0.29915672540664673, -0.25055989623069763, 0.37711575627326965, 0.534306526184082, 0.43605929613113403, 0.8798931241035461, -0.18540380895137787, 1.8265122175216675, 0.73126620054245, 0.41556575894355774, 1.9235352277755737, 1.4570530652999878, 0.06747915595769882, 0.24816171824932098, 1.7495477199554443, -0.48283544182777405, -0.39421358704566956, -0.42115598917007446, -1.5390571355819702], [-0.1131959855556488, 0.7714644074440002, -0.30870601534843445, 0.7512403726577759, -0.033499669283628464, -1.15211820602417, -1.0020456314086914, 1.0580699443817139, -0.2559903562068939, -1.9745070934295654, 1.2478559017181396, -1.4892559051513672, 0.562283456325531, -0.3781818449497223, 1.046097993850708, 0.29372718930244446, 0.9991593360900879, -0.3174617290496826, -1.0353617668151855, 0.12362021952867508, -0.353908896446228, -0.5509443283081055, 0.11849571764469147, 0.8029742240905762, -0.7361698150634766, -0.393326997756958, 0.8618096113204956, 0.18893331289291382, 0.37270107865333557, 0.6124746203422546, -0.5884300470352173, -1.3576136827468872], [0.019401509314775467, -0.2821049392223358, 1.3227955102920532, 0.009921373799443245, -1.2659412622451782, 0.22045937180519104, 0.45540350675582886, -0.4524632692337036, 1.1114355325698853, -1.090287446975708, 0.42819973826408386, -0.06729841977357864, -1.108067274093628, -0.7068679332733154, -0.9769788980484009, 0.31864333152770996, -0.944814920425415, 1.1148236989974976, -0.9122598171234131, 0.12934699654579163, -0.2701070308685303, -0.4089535176753998, 1.786499261856079, -0.3573288023471832, -1.0095758438110352, 1.2648074626922607, -1.6196342706680298, -2.255875825881958, -1.1951625347137451, -0.4450376033782959, -0.8981379270553589, 0.3113184869289398], [-0.35326024889945984, -0.6661167740821838, -1.6754379272460938, -1.174460530281067, 0.19296979904174805, -1.7966158390045166, 0.4467152953147888, 0.27856963872909546, -1.286384105682373, -1.6645569801330566, 0.7364296317100525, 0.49549373984336853, -0.4091535806655884, 1.7171376943588257, 0.2787470519542694, 1.3081796169281006, -0.25991401076316833, 0.3978179097175598, 0.3088999092578888, -0.12521475553512573, 0.8324529528617859, 0.8894826769828796, 1.9983501434326172, 0.14000731706619263, -0.49502286314964294, 1.0073689222335815, 0.7784469127655029, -0.24367697536945343, 0.7699993252754211, -1.0733299255371094, -1.345473051071167, 0.4410127103328705], [0.6981306672096252, 1.0920480489730835, -0.1842607706785202, 0.8304955363273621, 0.22101658582687378, -0.026496635749936104, 1.1055591106414795, 1.1332885026931763, -0.2955194413661957, -2.1959776878356934, 0.13559918105602264, -1.0280314683914185, -0.6932360529899597, -0.10217270255088806, 0.40113338828086853, 1.502445101737976, 0.6559755802154541, -0.3713630437850952, 0.18562960624694824, 0.1408231258392334, -0.19383889436721802, -0.30993691086769104, -0.9700084924697876, 0.4988894462585449, -0.21147851645946503, 0.3079831600189209, 0.05431448295712471, 1.2415522336959839, 0.024363812059164047, 0.4902660548686981, -1.4979790449142456, -0.36066389083862305], [-0.39296117424964905, 1.63315749168396, -0.9023558497428894, -0.39372608065605164, 0.05338742211461067, 1.7191534042358398, -0.7534571290016174, -1.091598629951477, 0.29728206992149353, -0.9681574702262878, -0.683899998664856, 0.3141487240791321, 1.2095035314559937, 1.2771550416946411, 0.5898132920265198, 0.38142716884613037, -0.5401020050048828, 0.25470343232154846, 0.5523229241371155, -0.5076513290405273, -0.05277590453624725, 0.4073101878166199, 0.05550740286707878, -0.3048274517059326, -0.43318402767181396, 0.5628538727760315, 0.7101206183433533, -0.37081047892570496, -0.21538636088371277, -1.178144931793213, -1.027018427848816, -2.4056854248046875], [0.5312812328338623, -0.4700331389904022, -1.71973717212677, -1.2508418560028076, -0.21851316094398499, 0.23375694453716278, -0.25446203351020813, -0.15752556920051575, -0.6905667781829834, 0.525017499923706, 0.1333562135696411, 0.2709445059299469, -1.688188910484314, 0.6562052965164185, 0.2988840937614441, 1.2596851587295532, -0.5611372590065002, 1.0158528089523315, 1.4112108945846558, 0.8478149175643921, -0.01306826714426279, 1.2187023162841797, -0.5123037695884705, -1.3048418760299683, -0.3571513891220093, 0.7673066854476929, -1.6629645824432373, 0.4196276366710663, 0.039455004036426544, -0.6275284886360168, -1.3534579277038574, 0.7788949608802795], [1.6701009273529053, -0.24885974824428558, -0.15849757194519043, 0.29182425141334534, -1.3045841455459595, -1.9080860614776611, 0.462431401014328, -1.4791040420532227, 0.33564746379852295, -0.128173828125, 0.346414715051651, 0.5126569867134094, -1.389032006263733, -0.3719361126422882, -0.5459047555923462, -0.1187259629368782, -0.1916312575340271, 0.21220092475414276, 0.30678892135620117, 0.6144101619720459, 0.8607758283615112, -0.5625147819519043, 1.2726364135742188, 1.302201747894287, -0.24154452979564667, 1.101912260055542, 0.515121340751648, -0.03403133898973465, 0.09876509010791779, 0.12094810605049133, -0.14197292923927307, -0.8583956956863403], [-1.1116023063659668, 0.6588522791862488, 0.5458710193634033, -0.411722332239151, -2.003985643386841, -0.7226359248161316, -0.26052120327949524, -0.08543521165847778, 0.0017783134244382381, -0.3174225091934204, -0.9770710468292236, -1.109265923500061, 0.14146848022937775, -0.6616983413696289, 0.1816074401140213, 1.317084550857544, -1.0039269924163818, 0.28740373253822327, -1.3372572660446167, 0.462041437625885, 0.5537588596343994, 1.351885199546814, -0.2237204611301422, 0.8906731605529785, 0.7354373335838318, -1.2408571243286133, -0.17218837141990662, 1.546820044517517, 0.5150749683380127, 1.232702612876892, -0.8466331362724304, -0.44141536951065063], [-2.120410203933716, 0.8896766304969788, -0.18760672211647034, -0.3744417428970337, -0.09258737415075302, 0.06387486308813095, -0.17403212189674377, 1.180383324623108, 0.04285171627998352, -0.3098151385784149, -1.1068564653396606, 0.09674082696437836, 0.5481058359146118, -0.4109046459197998, 0.4735562801361084, -1.5384926795959473, -2.459840774536133, 2.115163803100586, 0.04286492243409157, 0.005930110812187195, 2.2184383869171143, 2.381427049636841, -0.08749812096357346, 0.8721985816955566, 3.0741353034973145, -0.8650480508804321, -0.19616009294986725, -0.18702250719070435, -1.7093745470046997, -0.4001747667789459, 0.7879480123519897, 0.41340842843055725], [-1.1255131959915161, -2.327017307281494, 0.38841214776039124, 0.5825499892234802, 0.7329006195068359, -0.5942664742469788, 0.5491683483123779, 1.1175273656845093, -0.33106744289398193, 0.14438016712665558, 0.4643529951572418, -0.24743950366973877, 1.319399118423462, -1.1920275688171387, 0.04531483352184296, 1.3960919380187988, 0.03972092270851135, -0.7595180869102478, 0.6823585629463196, 1.0206323862075806, 0.8402371406555176, 0.9189393520355225, 0.8526732921600342, 0.047884501516819, -1.458613634109497, 1.2715091705322266, -1.0340557098388672, -1.4936100244522095, -0.37888917326927185, -1.567428469657898, 1.448075532913208, -0.2996179163455963], [0.6980493068695068, -2.053616762161255, 0.7965176701545715, -0.804844081401825, 0.04597808048129082, -0.6753222942352295, 0.489173948764801, 1.8804116249084473, -0.5704201459884644, 0.6961811184883118, -0.8681226968765259, 0.6022838354110718, -1.3558804988861084, 0.9176804423332214, -0.3385189473628998, 2.2638540267944336, 0.9582366943359375, 0.5405850410461426, 1.3670614957809448, -1.4837454557418823, -0.06400865316390991, -0.6635419726371765, -0.6494909524917603, -0.6525266766548157, -0.7137225270271301, -0.3929760754108429, 0.14541088044643402, 0.13403332233428955, -0.8796234130859375, -1.6046700477600098, -0.3803008794784546, -0.8767335414886475], [1.2147397994995117, 1.4967824220657349, 0.27180421352386475, -0.22103020548820496, -0.14713673293590546, 0.17903119325637817, -0.32896891236305237, -0.27946195006370544, 0.4423389434814453, -1.203281044960022, -1.8031896352767944, 0.3646475672721863, -1.5924701690673828, 0.7316905856132507, 0.024532247334718704, 0.36670824885368347, 0.7531570792198181, 1.7333769798278809, -0.19620832800865173, -1.309363603591919, 2.182335138320923, 1.733262300491333, -0.7256923317909241, 1.1174708604812622, 0.448178231716156, -1.0549582242965698, 1.5414774417877197, -0.607986569404602, 0.175138920545578, -0.7879973649978638, -0.9151249527931213, 1.0131367444992065], [0.004025205969810486, -0.31574249267578125, -0.8336628079414368, -1.0653846263885498, 1.9610662460327148, -0.493467777967453, 0.34361329674720764, 0.11550872772932053, 0.7191122770309448, -1.0749801397323608, 0.037499912083148956, 2.117509365081787, 2.4291939735412598, 0.8278302550315857, 0.3075553774833679, -0.30452731251716614, -0.5157867074012756, 1.087670087814331, 0.8073458671569824, 0.3739892542362213, 1.2323940992355347, -0.052422791719436646, 1.3419146537780762, -0.13442647457122803, 0.13578398525714874, 0.39230218529701233, -1.5197731256484985, -0.4181925654411316, 0.5904408097267151, 0.5127164125442505, -0.09988843649625778, 2.727795124053955], [-0.19473455846309662, -1.3973489999771118, 0.38048821687698364, -0.4910573959350586, -1.0208059549331665, 0.007048009429126978, 0.2979142963886261, 0.0002836044877767563, 0.5651434659957886, 1.2308824062347412, 0.48679253458976746, -0.7537562847137451, 1.1048822402954102, -0.3138945996761322, -0.2829318940639496, 0.4051617681980133, -0.15039068460464478, -2.029524564743042, 1.5913618803024292, 0.5542813539505005, -0.26856884360313416, 1.837908387184143, -1.6736655235290527, -0.16580639779567719, -0.24286973476409912, 0.06516944617033005, -0.5788370370864868, 3.0491411685943604, -0.568286657333374, 0.9352788925170898, 0.03221442550420761, -2.378526449203491], [-0.5002093315124512, 0.671943724155426, 0.25138115882873535, 2.038203239440918, 0.46405693888664246, -0.08189692348241806, 0.023326450958848, 1.4514487981796265, -0.6564313769340515, 0.9243810772895813, 0.44934603571891785, -0.4225289225578308, -0.9659079909324646, 1.0469528436660767, 0.9501326084136963, 2.396491289138794, -0.6152874827384949, -0.409870982170105, -0.20850670337677002, 0.7747294306755066, -0.4786561131477356, -0.033569660037755966, -0.030983464792370796, 1.1248860359191895, 0.18318819999694824, -1.6127028465270996, 0.9522023797035217, 0.38318127393722534, 0.24607867002487183, -0.8285383582115173, 1.0986254215240479, 0.8814863562583923], [-1.4990571737289429, -0.0929536372423172, 1.1939226388931274, -0.38338378071784973, 0.03551487624645233, -0.7429986596107483, -0.34212803840637207, 0.08617029339075089, -0.6945532560348511, -2.071077585220337, 0.2638595700263977, -0.29947492480278015, -0.860978901386261, -0.7525876760482788, -0.8661677241325378, -0.8161304593086243, -1.1364885568618774, 1.0863200426101685, 0.8875670433044434, -0.7572956085205078, 1.2079310417175293, -1.974073052406311, 1.3832416534423828, -2.1004788875579834, 0.6096334457397461, 0.980100691318512, -0.33979663252830505, -0.7281145453453064, 0.1452380120754242, -0.5236339569091797, -0.9906231760978699, 0.6694129705429077], [-3.1301114559173584, -0.1970118284225464, -2.184312343597412, -1.6593581438064575, 0.24957133829593658, -0.2971121370792389, 0.43304625153541565, -0.31048378348350525, 0.3256096839904785, -1.2833515405654907, -0.5322935581207275, -0.10209809243679047, -0.2749200761318207, -0.0984482616186142, 0.34759438037872314, -0.40836527943611145, 1.502911925315857, 0.49511200189590454, 1.3107761144638062, 0.3882145285606384, 0.15998625755310059, 0.29542768001556396, -0.04049483314156532, -0.476153701543808, 2.548701047897339, 0.394118070602417, -0.8594868183135986, 2.0863428115844727, -0.06210462749004364, -0.17649143934249878, -1.4253997802734375, 0.25197678804397583], [-0.010836737230420113, 0.2012643963098526, -0.09689529240131378, 0.2490713745355606, -0.10573139786720276, 0.6218787431716919, 0.30308598279953003, 0.6938462257385254, -0.13236181437969208, 2.5745925903320312, -0.2091640681028366, -1.511343002319336, 0.72043377161026, 0.011668923310935497, 1.0150617361068726, 1.4489883184432983, 0.90882807970047, -1.3353888988494873, 1.8866686820983887, 1.2450517416000366, -1.1718472242355347, -1.0497316122055054, -0.06822087615728378, -0.2090580314397812, -0.5981349945068359, -0.11781288683414459, 0.8651939630508423, -1.1850460767745972, 0.4456908404827118, 0.10681979358196259, 1.4744162559509277, -0.7941296100616455], [0.12225334346294403, -0.3455961346626282, -2.4865076541900635, 0.1661771684885025, 0.5390310287475586, 0.5246778130531311, -0.6460086703300476, -2.2896111011505127, 1.6617120504379272, 0.9184971451759338, 0.11784690618515015, 0.27136316895484924, -1.7382862567901611, 1.3836615085601807, -0.006183400750160217, -0.5501018166542053, -0.5810046195983887, 0.8409923315048218, 0.11047312617301941, 0.8892816305160522, 0.7255176901817322, 0.621060311794281, -0.5372601747512817, -0.5690630078315735, -1.1311627626419067, -0.04733015596866608, -0.1500968337059021, -1.3281835317611694, -0.8000660538673401, -1.595758318901062, -1.2245235443115234, -0.7025034427642822], [-0.25927186012268066, 0.04504631087183952, 0.363165020942688, -0.8066862225532532, -0.21806496381759644, 1.7591489553451538, -0.9310482144355774, -1.7883824110031128, -0.02742208167910576, -2.2221224308013916, 0.5146005153656006, -1.193688988685608, -1.7155556678771973, -1.6615135669708252, 0.7707610130310059, 0.005837892182171345, 0.5680172443389893, 0.8261240124702454, -1.0258865356445312, 1.1155320405960083, 0.0269874706864357, 0.5253116488456726, -0.8875892758369446, 0.552736222743988, -0.10966978222131729, 1.2528672218322754, -0.07832631468772888, 1.3018373250961304, 0.6488692760467529, -0.8813446164131165, -0.6076255440711975, 1.244439959526062], [-0.4533303380012512, 0.3387112319469452, -0.26207536458969116, -0.9343976974487305, -0.21937979757785797, 1.9163250923156738, -0.5171635746955872, 0.42302632331848145, 0.6893491148948669, -0.42411112785339355, 1.6486531496047974, 0.9198018908500671, -0.978977620601654, -0.8827725052833557, 0.43403080105781555, -0.012746984139084816, 0.36352625489234924, -0.4404209554195404, -0.3377206027507782, 0.46664050221443176, 1.6948145627975464, 1.0018922090530396, 0.00933116115629673, 1.3717564344406128, 1.1236363649368286, 2.013291835784912, -0.7695678472518921, 2.6091575622558594, -0.5931381583213806, -0.4615248441696167, -1.2006877660751343, -0.9867933392524719], [-0.20691460371017456, 0.3309769630432129, 0.08939248323440552, 0.4323180913925171, 0.7653003931045532, 1.212634801864624, -0.2938157916069031, 0.5807729959487915, -0.5926514267921448, 2.3404335975646973, 1.5638229846954346, -1.0527867078781128, 0.6995481252670288, -0.6895214915275574, -1.9426504373550415, 1.481507420539856, -0.2968684732913971, -0.5588073134422302, -0.3385848104953766, 1.1068367958068848, -0.3746851980686188, 0.21597746014595032, 0.15648333728313446, 1.0745571851730347, 0.10544649511575699, -0.6680663824081421, 0.630396842956543, 0.685348391532898, -0.2553268074989319, 0.2620811462402344, -0.8215460181236267, -0.9544749855995178], [-0.36205166578292847, 0.15139417350292206, 0.8155124187469482, -0.3889092803001404, 0.45926716923713684, 0.9450302720069885, -0.017594436183571815, -0.5283024907112122, 0.40214136242866516, 0.34787100553512573, 0.9150704145431519, -0.6868853569030762, -0.4529625177383423, -0.08219832926988602, -1.516600251197815, 3.3032946586608887, -1.0423141717910767, 0.6190232038497925, 1.1865836381912231, -0.18960106372833252, -0.33227425813674927, 0.6140356063842773, 0.8691339492797852, 0.5867953896522522, -1.050660490989685, 0.08926520496606827, -0.2816108465194702, 1.234785556793213, -0.49959608912467957, 0.34148910641670227, -0.8620262742042542, -0.4915221631526947], [-0.8472623229026794, -1.0871790647506714, 1.2226290702819824, -1.0870033502578735, -0.37646937370300293, -0.11997584998607635, 0.15581156313419342, 1.4296983480453491, -0.8868285417556763, 0.8933065533638, -0.5440225005149841, 0.3210529685020447, 0.17922480404376984, -1.95045006275177, -1.1939287185668945, -0.2264717072248459, 1.0342588424682617, -1.1046373844146729, -0.8384071588516235, -1.1731961965560913, 0.7060672044754028, -0.02703309990465641, -0.14530381560325623, 0.014529762789607048, 0.5539666414260864, 1.2850896120071411, -0.8388599753379822, -0.7429597973823547, -0.32039475440979004, 0.07805071771144867, -0.5780712366104126, -1.626163363456726], [-2.64310622215271, -0.6149227619171143, -0.38341087102890015, -0.3523106873035431, -0.940791666507721, 0.6331088542938232, 0.09602858126163483, 0.6658220887184143, -0.7696740031242371, -0.9075770974159241, 0.5216678977012634, 0.46176818013191223, 0.24022094905376434, -1.2650283575057983, 1.934942603111267, -1.1217420101165771, 0.31888923048973083, -2.5208404064178467, -1.1282113790512085, 0.18030522763729095, 1.2495688199996948, -1.3180866241455078, 0.20789645612239838, -0.20336274802684784, -1.0897960662841797, -0.6359478831291199, 0.8821420073509216, 0.09536890685558319, 0.37107470631599426, -1.511828064918518, 0.6299357414245605, 0.4591290354728699], [-3.5024306774139404, -0.2838703989982605, -0.47094881534576416, -1.7668983936309814, 1.3252389430999756, -1.0170080661773682, 0.02950415574014187, 0.5490227341651917, -0.3337867856025696, -0.31202346086502075, -0.3326528072357178, -1.6231627464294434, -1.147287368774414, 0.8234225511550903, -2.427497386932373, -0.34495770931243896, 1.3466933965682983, 1.9916660785675049, 1.2402565479278564, 1.5965601205825806, -1.4159517288208008, 0.04794221743941307, -1.4107513427734375, -1.0642279386520386, 0.1826939433813095, 0.32347747683525085, -0.2563360333442688, -0.049096155911684036, -0.3108832538127899, -0.5086578130722046, 0.6069725751876831, 0.4169008731842041], [-0.20508915185928345, -0.8250692486763, -1.5986177921295166, -1.684670329093933, -0.1586950570344925, -0.7233200669288635, -0.5802512764930725, -1.7149659395217896, 0.9831455945968628, 0.8618711829185486, -0.48023566603660583, -1.729703664779663, 0.49301019310951233, 1.5741907358169556, -0.15891776978969574, -0.15908914804458618, -0.7420204877853394, 1.2452460527420044, 1.004102110862732, -0.8909439444541931, 0.1566813439130783, 0.7735531330108643, 0.684667706489563, 0.26496559381484985, -3.204894781112671, -1.031686782836914, -0.3510779142379761, -1.5612190961837769, -0.43088167905807495, -0.1858903169631958, -1.2501600980758667, -0.41751620173454285], [1.024501919746399, 0.07652939110994339, -0.16362376511096954, 0.1627250760793686, -0.14760424196720123, 0.2740131914615631, 0.0858537033200264, -0.1792430281639099, 0.03236613795161247, -0.05720170959830284, 0.07835851609706879, 0.6722643375396729, 0.4796457588672638, -0.02089787647128105, -0.7106679081916809, 0.07885134965181351, -0.2910008430480957, -0.12844572961330414, -1.9092053174972534, -1.1640124320983887, -0.040914446115493774, -1.599333643913269, 0.735368549823761, -0.20678357779979706, -0.07007508724927902, 0.9221892952919006, 0.17097404599189758, 0.8155186772346497, 0.03856263682246208, -0.021113449707627296, 0.5554130673408508, -0.6361774206161499], [-1.3491803407669067, -0.34492844343185425, -1.2057172060012817, 1.3283098936080933, -1.3748587369918823, -0.5540748238563538, -0.1352824568748474, 1.3856838941574097, 0.03911210596561432, 1.4464051723480225, -0.4629627764225006, 1.3441572189331055, -0.2062196135520935, -0.3887031078338623, 0.9280543327331543, 0.12331736087799072, 0.20477662980556488, -0.7118002772331238, 0.4311167895793915, 0.5812596678733826, -0.7286466360092163, 1.022391676902771, -0.7184702157974243, -1.319887399673462, 0.7892350554466248, -2.064401626586914, 0.2905210256576538, 0.12717963755130768, 0.10994765162467957, 0.3145982325077057, 1.179304838180542, -0.45462343096733093]], [[1.114026665687561, -0.28989681601524353, -0.698448896408081, 0.11892849206924438, 0.45934757590293884, 2.0452616214752197, -0.7583264112472534, 0.8804409503936768, -0.7124288082122803, 0.3318614661693573, -0.5064863562583923, -0.2533412277698517, -0.4344954192638397, 0.1458096206188202, 2.294910430908203, 0.3834306299686432], [0.5271778702735901, 0.4531486928462982, -0.5191245079040527, -0.34320053458213806, -0.9283758997917175, 0.20460312068462372, -0.0026466844137758017, -0.029423518106341362, -0.334775447845459, 2.1878819465637207, 0.6968748569488525, 1.904890537261963, 0.4890117049217224, 0.9518723487854004, -2.2650516033172607, 1.9378730058670044], [1.0550761222839355, -0.15064069628715515, 1.4784128665924072, 1.3607122898101807, -2.28334641456604, 1.4989453554153442, -1.5291829109191895, 0.3120950162410736, -1.1421161890029907, 1.2450087070465088, -1.1512919664382935, -0.15441787242889404, -0.9681054949760437, 1.0070099830627441, 0.22064322233200073, -0.8302452564239502], [-1.017403244972229, -1.2719604969024658, -0.095499686896801, 0.7590519189834595, -0.7117813229560852, -0.8855376243591309, -0.6224641799926758, 0.7560509443283081, -0.23593996465206146, -0.5541059374809265, -2.3825955390930176, 0.9821261763572693, 0.1706378161907196, -1.63416588306427, 1.294891595840454, 0.04753376170992851], [0.4702509343624115, 0.6901182532310486, -0.7809764742851257, -0.5291652679443359, -0.7207853198051453, 0.59536212682724, -1.0667370557785034, 0.8393892645835876, 0.5944100022315979, -0.5799974799156189, 0.26775336265563965, 1.5553038120269775, -0.4643614888191223, 0.8424159288406372, -0.3604884445667267, -0.8567118048667908], [0.15409719944000244, -0.002691304311156273, -1.0953733921051025, 0.9252166748046875, 0.12598541378974915, 1.1957666873931885, -0.6663181185722351, -0.4662986993789673, 0.11305052042007446, 1.494592547416687, -0.5272719264030457, -1.6529179811477661, -0.7122895121574402, 0.7104899883270264, 1.5947614908218384, 0.00799116026610136], [1.363332748413086, 1.5880707502365112, -0.21125982701778412, -0.45548027753829956, 0.39810919761657715, 0.16822978854179382, 1.5064055919647217, -0.20533007383346558, -1.9914884567260742, -0.37823036313056946, 0.48249855637550354, -0.5089194774627686, -1.945144534111023, -0.159883514046669, 0.49133890867233276, -2.1319596767425537], [-1.1441211700439453, 1.3836190700531006, -1.264553189277649, 2.6667983531951904, -1.478735089302063, -0.9876603484153748, -1.434220552444458, -0.9651596546173096, -1.802970051765442, -1.6507039070129395, 0.5087687969207764, -1.0055581331253052, -2.295447587966919, 1.3656221628189087, 0.739238977432251, 0.8224369883537292], [0.10260985046625137, 0.7754823565483093, 1.8005635738372803, -1.8410085439682007, -0.40632960200309753, 0.7167300581932068, 0.38950639963150024, 0.6514009833335876, -1.3039907217025757, 0.7084531188011169, -0.9792787432670593, -0.49513086676597595, -0.08055377751588821, 2.944105863571167, 1.8057688474655151, 0.45963484048843384], [0.8966257572174072, 0.2769187092781067, -1.5042585134506226, 0.3580476939678192, 1.0212794542312622, -0.26467975974082947, -0.361059308052063, 1.2772408723831177, -0.7497239112854004, -0.136943519115448, -0.0796782523393631, 0.7005437612533569, -0.00043270131573081017, -0.8298423886299133, 0.6101822257041931, 0.6529862880706787], [-0.5951809883117676, -1.0842761993408203, -0.9095327258110046, 0.018787389621138573, 1.8061788082122803, 1.008129596710205, 1.583251953125, 0.17237405478954315, -0.3960006535053253, 0.41252046823501587, 0.10221324861049652, 0.5032826066017151, -0.7450007796287537, 0.031370118260383606, -1.7133617401123047, -0.03431457653641701], [0.6304041743278503, -0.12585817277431488, -0.03258638083934784, -0.11979686468839645, 0.9100157618522644, -0.7084869146347046, 0.4000689387321472, -1.4414095878601074, 0.13813923299312592, 0.5276432633399963, -1.0947067737579346, 1.1923155784606934, 0.2795010209083557, 0.8198989629745483, -0.47703829407691956, -1.2164076566696167], [-0.715726912021637, 0.4480717182159424, -0.39778637886047363, -0.4419853985309601, -2.0428178310394287, -0.6373639702796936, 1.2499788999557495, 0.08663737028837204, -0.3098548352718353, 1.081164002418518, -0.8482905030250549, -0.3855803906917572, -0.30032846331596375, 0.8203834295272827, -0.4910401999950409, -0.6973945498466492], [1.0367190837860107, 0.3028148412704468, -1.0262807607650757, -0.07029630988836288, -0.15362878143787384, -0.31129467487335205, 0.6362136602401733, 1.5799572467803955, 0.8466001152992249, 0.17764800786972046, -1.0652786493301392, -0.4809200167655945, 0.2957627773284912, -0.21532806754112244, 0.4849552810192108, -0.11739692091941833], [0.42276301980018616, -0.7744395136833191, 1.2611346244812012, 0.4478359520435333, -0.19217847287654877, 0.8485285043716431, -1.4925063848495483, -1.1573542356491089, -0.21549074351787567, 0.506956934928894, -1.0987892150878906, 0.7337576150894165, -1.1334490776062012, 0.18120332062244415, -0.1001041978597641, -0.2857462465763092], [-1.4419699907302856, 0.32990333437919617, -0.7650066614151001, 1.4651365280151367, -1.391929030418396, 0.6280103921890259, 0.07314247637987137, 0.5018994212150574, -0.1637604832649231, -1.1072708368301392, 1.0930333137512207, -0.7641257643699646, -0.48417651653289795, 0.9947627782821655, 1.1766033172607422, -0.41971808671951294], [0.2697565257549286, -0.8765807747840881, -0.09734436124563217, -0.46024829149246216, -1.0936802625656128, 1.443011999130249, 0.9623528122901917, -1.2493247985839844, 0.0049653202295303345, -1.5506070852279663, -0.35294437408447266, -0.5105886459350586, 0.11577724665403366, 0.10062552988529205, -0.26259472966194153, 0.2488875836133957], [-1.7408236265182495, -0.2781146168708801, 1.3188045024871826, -0.639045000076294, 0.3097149133682251, 0.7131487727165222, -0.12193287909030914, 0.9339920878410339, 1.2500965595245361, 0.5244847536087036, -0.2490164041519165, -0.029889501631259918, -0.7214210033416748, -0.32004326581954956, -1.0162602663040161, -1.2239091396331787], [0.5924793481826782, 0.9675383567810059, 1.788341999053955, -1.7562230825424194, -0.6346623301506042, 0.7334886789321899, 0.4362877309322357, -1.0105998516082764, -0.23230962455272675, 0.7084616422653198, -0.5149297714233398, -0.4081996977329254, 0.2407049834728241, 0.6585830450057983, 1.5687059164047241, 0.7391977906227112], [1.211963176727295, -0.2987534999847412, 1.9023200273513794, 0.8883723616600037, -0.12891992926597595, 0.3728267550468445, 0.8177168965339661, 0.6004040241241455, -0.32234427332878113, 1.0595375299453735, 0.43654686212539673, 0.2892917990684509, 1.383821964263916, 0.3804929256439209, 1.0836960077285767, -1.3342739343643188], [0.7642194628715515, -1.4146311283111572, 0.12113021314144135, 0.8619867563247681, 0.02471029758453369, -0.6965942978858948, -1.0763957500457764, 0.2032318413257599, -0.3866331875324249, -0.06319430470466614, 0.009756740182638168, 0.0726875588297844, 0.3412054181098938, 0.14269591867923737, -0.4836812913417816, -0.03028852678835392], [0.05027911812067032, -2.476325511932373, 0.09565680474042892, -0.7246938347816467, -0.7826128005981445, -0.11594302207231522, -0.5454193353652954, 1.0834887027740479, 1.7392269372940063, -0.9620867967605591, 0.6506425142288208, 0.21994072198867798, -0.6881559491157532, 1.7276393175125122, 0.339840292930603, 1.144417405128479], [-0.5764148235321045, 1.2907134294509888, -0.9109463095664978, -1.4809749126434326, 2.3760433197021484, -1.2284117937088013, 1.4622657299041748, 0.5582436323165894, 1.8110674619674683, -1.116634488105774, 0.09761865437030792, -0.139813631772995, 0.39609798789024353, -0.6102365255355835, -0.033794909715652466, 1.1774792671203613], [0.5010271072387695, 0.654367208480835, 2.4269444942474365, 0.0808698982000351, 0.6402677893638611, 0.5434228181838989, -0.5263653993606567, -0.3973305821418762, 0.19510921835899353, 0.8249168395996094, -0.32265669107437134, 0.720936119556427, 1.356697916984558, 1.6108429431915283, -0.747971773147583, 0.6451738476753235], [-3.4222939014434814, 0.6832960247993469, 0.5161604881286621, 0.3819860517978668, 0.07366478443145752, -0.832036554813385, -0.3798232078552246, -3.6394217014312744, -0.9192395806312561, 2.148777723312378, -0.03445521742105484, 0.25134387612342834, 0.004333845339715481, 1.184201717376709, 1.7192484140396118, 0.6160274744033813], [0.2787792682647705, -0.2962642312049866, -0.22212792932987213, -0.653039276599884, 0.6269090175628662, 0.3754657208919525, -0.5364363789558411, -0.865657389163971, 0.06643492728471756, -0.215470090508461, 0.9969875812530518, -0.2668076455593109, 1.9750345945358276, -0.6980350017547607, -1.0835750102996826, -0.3386646807193756], [-0.21764929592609406, -0.6642591953277588, -1.9852628707885742, -1.362389326095581, 0.22840207815170288, -0.21413670480251312, -1.4646544456481934, 0.28099194169044495, -1.4883657693862915, 0.21621935069561005, -0.3593778610229492, -0.621051013469696, 0.22167348861694336, 1.283389687538147, 1.5360664129257202, -0.813334584236145], [-0.4890807867050171, -1.142753005027771, -1.8834904432296753, 0.34276697039604187, 0.7204903960227966, -0.699922502040863, 0.2781214118003845, -0.4100565016269684, 0.4698861241340637, 1.141534447669983, 0.06852426379919052, 0.5280472636222839, 0.3998791575431824, 0.729969322681427, 1.9919592142105103, -0.8775566816329956], [-1.247121810913086, 2.111370325088501, -0.025764362886548042, 0.19322463870048523, 1.115873098373413, 0.32848986983299255, -0.129046231508255, -0.5138645172119141, -0.04301784932613373, 0.5613318085670471, -1.4371453523635864, 0.12189508974552155, 1.1663254499435425, 0.29141131043434143, 0.2369031012058258, -0.030695397406816483], [-0.27647483348846436, -1.33126962184906, 0.22357110679149628, -0.5320329666137695, 0.2360616773366928, -1.4394327402114868, -0.15744270384311676, 0.40400058031082153, 0.20773328840732574, 1.1181495189666748, 0.4720590114593506, 0.09611310809850693, -0.4626738131046295, 0.04155430570244789, 0.38264691829681396, -0.36386463046073914], [-0.9375004768371582, -1.0921770334243774, -1.062520980834961, 0.871327817440033, 1.231688141822815, 0.8103877305984497, -0.5839089155197144, 0.24841724336147308, -0.24438810348510742, -0.24161355197429657, 0.718393087387085, 1.6335959434509277, -1.4416391849517822, 0.6086201071739197, -0.12070682644844055, 0.1506546437740326], [1.5391844511032104, 0.13731889426708221, 0.5909633040428162, -1.154294490814209, 0.5240039229393005, -0.5556667447090149, 0.3513621985912323, -0.7690622210502625, 0.9021015763282776, 0.23140381276607513, -0.7377733588218689, -0.23192313313484192, -0.9854824542999268, 0.6847845911979675, 0.5207037329673767, 0.7028763294219971]], [[0.009134279564023018, -0.8318997025489807, -0.05758792161941528, -0.5929115414619446, -2.6823441982269287, 0.19070278108119965, 1.9539706707000732, 1.507273554801941, -1.6363742351531982, 0.48923617601394653, 0.6107249855995178, 0.04233468696475029, 1.7605606317520142, -0.983336329460144, -1.0208386182785034, 0.648604154586792, -0.042788464576005936, -0.8955090641975403, -0.28327736258506775, -0.7196660041809082, -0.005242438986897469, 0.6359593868255615, -0.8083183169364929, -0.2505798637866974, 0.21826957166194916, -1.5590503215789795, 1.5142028331756592, -0.3026024401187897, -0.1755443662405014, -0.5021634101867676, -0.46137678623199463, -0.7711701393127441], [-1.1408298015594482, 0.07060353457927704, 0.16469529271125793, -1.152848720550537, -0.19809590280056, -1.25872802734375, 0.16513356566429138, -0.6764546036720276, 0.6606934070587158, 2.7798469066619873, 0.8126065135002136, -0.9764682650566101, -0.5120775103569031, -1.4357613325119019, -1.456461787223816, 0.44220396876335144, -1.1295033693313599, -0.9390599131584167, 0.33893099427223206, 0.3992559313774109, -0.24053475260734558, -1.2870514392852783, 1.6336926221847534, -0.3362508714199066, -2.300046443939209, 1.7083367109298706, 0.12453919649124146, -1.70005202293396, 0.8845841288566589, -0.3780044615268707, 0.7563585042953491, -0.5376529097557068], [-0.19624263048171997, 0.1573784202337265, 0.32279855012893677, -1.0926833152770996, -0.10423929244279861, -1.8335964679718018, 0.023542923852801323, -0.6623986959457397, -0.8187650442123413, -1.5686211585998535, 0.24025534093379974, 0.20867952704429626, 3.707651376724243, 0.6449692845344543, 1.117916464805603, -0.3058524429798126, -0.2525085508823395, -0.5121135711669922, -0.9055766463279724, 3.6217925548553467, 1.0000827312469482, 1.1318633556365967, -1.3652241230010986, -0.08747491985559464, -0.38448506593704224, 1.2991678714752197, -0.6505573987960815, -0.3176766633987427, 0.6389942169189453, 1.5122027397155762, 0.10756120830774307, 0.3235979974269867], [0.6740245223045349, 0.005967552307993174, 1.1836143732070923, 2.2554209232330322, -0.5943563580513, 1.0785969495773315, 0.3316194415092468, 0.28863874077796936, -0.9534684419631958, 1.4178483486175537, -0.6047138571739197, -1.1810249090194702, -0.38729551434516907, -0.4168093204498291, -1.4225620031356812, -0.5358392000198364, -1.663710117340088, -0.35024920105934143, 0.041520267724990845, -0.6619207859039307, 0.26611000299453735, -0.5192267298698425, -1.0761082172393799, 1.2710210084915161, -0.7327225804328918, -0.06409219652414322, -0.8539804816246033, 0.951928436756134, -0.16615396738052368, -0.6301239728927612, 0.8899769186973572, 0.5403469800949097], [-0.586732029914856, -0.7613729238510132, -0.4338163137435913, 1.0198451280593872, 0.8611473441123962, 0.5206176042556763, 0.5343503355979919, -0.12430162727832794, -2.933959722518921, -0.03401099890470505, 0.05446220934391022, 0.4652405381202698, -0.37288880348205566, 0.49380043148994446, 0.7336148023605347, -1.4193984270095825, -0.039362646639347076, -0.1479068100452423, -0.4798579216003418, 1.647417664527893, -0.39439505338668823, -0.13962186872959137, 1.1126750707626343, 0.6269899010658264, 0.9924831390380859, 0.5687384009361267, 0.6968360543251038, -1.832298755645752, 0.4548093378543854, -0.554399847984314, -0.6014770269393921, -0.9405273199081421], [0.6272279620170593, 1.108939528465271, -1.9881348609924316, -1.6400219202041626, 0.6736233234405518, -1.1910667419433594, -0.6485799551010132, -0.3326331079006195, 0.23476335406303406, 1.1095746755599976, 1.1080260276794434, -0.09455380588769913, 0.03127985820174217, -1.8603532314300537, -1.1478124856948853, -0.4478796124458313, -1.0946316719055176, -1.2467154264450073, 0.3676956295967102, -0.1909823715686798, 0.5229259133338928, -1.9690873622894287, -0.07435768097639084, 0.18540136516094208, 0.8541542291641235, 0.503055214881897, -0.07930561900138855, -1.2506790161132812, -1.0053261518478394, -0.8081762194633484, -1.5063519477844238, 1.1680727005004883], [0.04479556158185005, 1.0983765125274658, -0.24270473420619965, -0.23213018476963043, 0.6122474074363708, -0.3080277740955353, -1.4565905332565308, -0.7344169020652771, -0.22307197749614716, 1.5475282669067383, -0.11046664416790009, -0.2831697165966034, -1.6801345348358154, 0.35725438594818115, 0.525297224521637, 1.4177592992782593, -1.5909935235977173, -1.8754894733428955, 0.04785899445414543, -0.11850695312023163, 0.8288373351097107, -1.798775315284729, -2.091111421585083, -0.5560706257820129, -0.4841671586036682, 0.23490260541439056, -1.8618803024291992, -1.225423812866211, 0.09405118972063065, 0.8619210124015808, -0.21585798263549805, -1.528085708618164], [-0.3248840868473053, 1.079881191253662, -1.569632887840271, -0.8991521596908569, 0.24741171300411224, -1.7022196054458618, 0.5195526480674744, -2.0358994007110596, -0.9655849933624268, -0.1895681768655777, -0.8843777775764465, 0.753324568271637, 0.915048360824585, 0.2721192240715027, 0.21393927931785583, 0.429299533367157, -0.8726382255554199, 0.2603207230567932, 0.6327254176139832, -2.1009604930877686, 0.4331083297729492, -0.11607080698013306, -0.4458167552947998, 1.0694884061813354, -0.8782263994216919, -0.4644836485385895, -0.8119910955429077, -1.223758578300476, -0.1348104327917099, -2.195772886276245, 1.7086490392684937, 0.4746582508087158], [0.25671839714050293, 0.5066699981689453, -1.3469977378845215, -0.05498886853456497, -0.02705257199704647, -0.01548062078654766, 0.2237752079963684, -0.7484971284866333, 0.8122165203094482, 1.7955442667007446, -0.08157504349946976, 0.9706726670265198, 0.0542457215487957, 0.9157103896141052, -0.803052544593811, -0.41691160202026367, -2.0056021213531494, 0.9609357714653015, -1.7619093656539917, -0.2307811826467514, -0.731414258480072, -0.8276426792144775, 1.0756936073303223, -0.8338939547538757, 0.3624863028526306, 0.5383513569831848, 0.38023972511291504, -0.6776367425918579, -0.5081897377967834, 1.672682285308838, -0.5538294315338135, -0.19916659593582153], [-0.9647497534751892, -0.23227491974830627, -0.6941313147544861, 0.8584402799606323, 0.3804797828197479, -1.7709041833877563, -0.6303272247314453, 0.6543816924095154, 2.017011880874634, 0.3661288917064667, -0.8362778425216675, 0.3128690719604492, 1.5402843952178955, -0.7817889451980591, -0.0015631169080734253, -1.3953627347946167, -0.39163199067115784, 0.3306853175163269, -0.3478814959526062, 0.9020286202430725, -0.6073275208473206, 0.49415791034698486, -1.5538848638534546, -0.9016588926315308, -0.6819889545440674, -0.7610370516777039, 0.2913298010826111, -1.1046613454818726, 0.47191858291625977, 0.19738633930683136, 1.9099887609481812, -0.7356616258621216], [-0.3107354938983917, 0.03647083044052124, -0.2926003038883209, 1.0124764442443848, -2.3525381088256836, 0.5879223942756653, -0.5873464345932007, -1.684936761856079, 0.4610733389854431, 0.11036784946918488, 0.5029411911964417, 1.2659937143325806, -4.841475009918213, -1.474145770072937, -0.23452670872211456, -0.6211298704147339, 0.8840329647064209, 0.45316752791404724, 1.0998241901397705, -0.13266845047473907, -0.24538926780223846, 1.4415401220321655, 0.7859390377998352, 0.25573134422302246, -2.9076626300811768, -1.7086061239242554, -1.0884475708007812, -0.7300022840499878, 0.29191938042640686, -0.07378556579351425, 0.056648217141628265, -0.969464123249054], [0.07632003724575043, 0.8358941078186035, -0.5179029703140259, -0.6637997627258301, -0.20422710478305817, 0.8671796917915344, -1.2405567169189453, 1.1520975828170776, 1.0867180824279785, 1.1121773719787598, 0.1007256805896759, -0.3721631169319153, 1.522799015045166, 0.7614365220069885, -0.6513967514038086, 0.4512633979320526, -0.4182250499725342, 1.9286311864852905, -0.3820420503616333, 1.104964256286621, 1.5449855327606201, 0.23540112376213074, 0.4858240485191345, 1.9236310720443726, 0.43830031156539917, 0.16421419382095337, 0.21104168891906738, 0.42323175072669983, -0.42452460527420044, -0.27045556902885437, -0.1463746428489685, -0.8768901824951172], [-0.8419815301895142, 2.867323637008667, -0.7851735949516296, -1.054260492324829, 0.23844163119792938, 0.879294216632843, -0.3750079870223999, -0.7772743701934814, -0.7815658450126648, 0.6158966422080994, -0.6917738318443298, -0.6573249697685242, -1.7051172256469727, 0.7920829057693481, -1.8057481050491333, 0.10039189457893372, 1.3316190242767334, -0.023022670298814774, -1.64890456199646, -0.7916881442070007, 0.559525191783905, 0.7610539793968201, -2.2112436294555664, -0.8067768812179565, 1.8733221292495728, 1.4501368999481201, -1.1481187343597412, 1.3484578132629395, 0.12251197546720505, 0.25532305240631104, 0.658363401889801, 0.15933875739574432], [0.5229591131210327, -0.1668914258480072, 0.8142426609992981, 0.8433747887611389, -0.1480204313993454, -1.2345339059829712, 0.020302848890423775, -0.6702268123626709, 0.6477461457252502, 1.7426776885986328, -1.6583950519561768, 1.4541438817977905, -2.0595579147338867, 0.459768146276474, 1.881341576576233, 0.26892662048339844, 1.8070788383483887, -0.721724271774292, -0.8406765460968018, -1.4018218517303467, -1.5999888181686401, -0.8337450623512268, -0.08026974648237228, 0.1246328204870224, 0.18167148530483246, -0.5924461483955383, 1.5678120851516724, -0.9719828367233276, -0.7763658761978149, -1.3817191123962402, -1.5766072273254395, 1.121373176574707], [-0.2692600190639496, 0.2755414843559265, 0.08573230355978012, 0.09733980149030685, 0.29612717032432556, -0.4852431118488312, 0.6202574968338013, 1.350541114807129, 0.3932505249977112, 1.144865870475769, 1.6021701097488403, 0.7191839218139648, -0.41621994972229004, -1.533064842224121, 0.19428114593029022, -0.03372889384627342, 1.0362961292266846, 0.6804484128952026, 0.23112334311008453, -0.21482817828655243, 0.5626647472381592, 0.12824927270412445, -0.5667040944099426, 0.1198536604642868, -0.7643635272979736, -0.9104917645454407, 0.3894622325897217, -1.6581716537475586, 0.8499269485473633, 0.2041107416152954, -1.4222607612609863, 0.18702827394008636], [0.3627813160419464, 0.7678347826004028, 0.22600509226322174, -0.14017173647880554, -0.9412796497344971, 0.016742413863539696, -0.5796149969100952, -0.05154614895582199, 0.10435482114553452, -0.6068456768989563, -3.4320790767669678, 0.3177255392074585, 0.71778804063797, 1.8491822481155396, -0.31836163997650146, 0.2743634879589081, 0.1744600534439087, -1.2161178588867188, 0.5141406059265137, 0.5720661282539368, -0.17094548046588898, 0.6359962224960327, 1.7793352603912354, -1.2368113994598389, -1.1465336084365845, 0.09564001858234406, -0.12583406269550323, -0.5637472867965698, -1.6404929161071777, -0.07746226340532303, 1.5263386964797974, -0.20278777182102203]], [[1.1013997793197632, -0.3662720024585724, 0.39143478870391846, -1.507224678993225, -0.4730204641819, 1.4621834754943848, -0.05067393183708191, -0.6902625560760498, 1.0282121896743774, 1.9936790466308594, 0.48838379979133606, 2.5180695056915283, 0.20978713035583496, -0.2111382782459259, -1.2226635217666626, 1.4177186489105225, 0.30840548872947693, 0.525940477848053, 0.7304179072380066, -0.2612072229385376, -1.038114309310913, 0.5513538122177124, 0.10454893857240677, 1.6391127109527588, -0.4059642255306244, 1.1377811431884766, -0.42245957255363464, -1.1849271059036255, -0.29527199268341064, 0.7514514923095703, -0.49669545888900757, 0.4277968406677246, -0.06659963726997375, -1.7694917917251587, -1.721145749092102, 2.478976011276245, -1.5066083669662476, -0.4694896340370178, 0.2986155152320862, -0.7602998614311218, 0.2321729212999344, -0.2820323705673218, -0.9518913626670837, 0.010228210128843784, -0.1676151007413864, 0.6194108128547668, 0.6426103115081787, -1.0052305459976196, 0.3389263153076172, 0.8802489638328552, 0.6147531270980835, 0.37620222568511963, -1.3969449996948242, 0.5761403441429138, 1.306010365486145, 0.09429580718278885, -1.7688865661621094, 0.9149443507194519, 0.208993598818779, 0.8398751616477966, 1.245463252067566, -0.3535499572753906, -1.226105809211731, 0.7625808715820312], [-0.07903273403644562, -1.0696388483047485, 1.0708105564117432, 0.8990513682365417, -0.8577126860618591, -0.275182843208313, -0.9361135959625244, -0.1777772158384323, 1.03187894821167, -0.8780769109725952, -0.45771047472953796, -2.205505609512329, 0.26399752497673035, 0.8865613341331482, 0.5376690626144409, -0.8050613403320312, -0.12566259503364563, 1.0217827558517456, -0.18485790491104126, 2.235443353652954, 0.5256415605545044, 0.978363573551178, 0.4120819866657257, -0.8751531839370728, 1.1717205047607422, -0.25058090686798096, -0.40932950377464294, -0.7200353145599365, 0.1007915735244751, -0.6385854482650757, 0.5325115919113159, -0.474001407623291, -0.29462534189224243, -1.1618539094924927, -0.2557329535484314, 0.7959702014923096, 2.0819828510284424, 0.3802121877670288, 0.03360327333211899, 0.34417837858200073, 1.3082375526428223, 0.8239721655845642, 0.12820082902908325, -0.012332336977124214, -0.46402594447135925, -0.04119846969842911, 0.30806493759155273, -0.28700804710388184, 1.0097119808197021, -0.1237090677022934, 0.09356408566236496, 1.347317099571228, 0.875888466835022, 2.1355175971984863, -1.4451842308044434, 0.5747630000114441, -0.08437754958868027, -0.2678087651729584, 1.0507094860076904, 0.5810076594352722, -0.273740291595459, 0.470331609249115, -3.0437116622924805, -0.8252697587013245], [0.22645168006420135, -0.4344300329685211, 0.6617618203163147, 1.7883917093276978, 0.09303072094917297, 0.10436277836561203, -1.3499387502670288, -1.4713562726974487, 0.5747649073600769, 1.134144902229309, 1.0401285886764526, -0.37725844979286194, -0.048277080059051514, 0.35141006112098694, -0.04784535616636276, 0.011881007812917233, -1.065717339515686, -0.6467046737670898, -0.33473706245422363, -0.9350472092628479, 0.7498214244842529, -0.660575807094574, -0.5925053358078003, -1.7643473148345947, 0.8230509757995605, 0.555334746837616, -1.8146458864212036, -0.41154155135154724, -1.4521739482879639, -0.5069142580032349, 2.0540366172790527, 1.6027209758758545, -0.4417950510978699, -1.08852219581604, -0.15754754841327667, -0.8045390248298645, 0.06236167624592781, -0.48276597261428833, -0.2231793850660324, 0.08149714767932892, 0.2525438070297241, 0.45337873697280884, 0.9449875354766846, 0.14737455546855927, 1.051444411277771, 0.5951756238937378, -1.6306242942810059, -0.4250980019569397, 0.4391597807407379, -0.10361691564321518, -0.010721015743911266, 1.5057193040847778, 0.31343874335289, -1.36925208568573, -1.3173441886901855, -0.14368444681167603, -0.007020315155386925, -0.7276873588562012, 0.45913901925086975, 1.898321270942688, -1.878422737121582, 0.6629854440689087, -1.4190583229064941, 1.4757323265075684], [-0.9948093891143799, -1.8703311681747437, 0.3575042188167572, 0.8951718807220459, -0.28682950139045715, 2.4813315868377686, -0.5589106678962708, -0.3081117868423462, 0.4262509346008301, 0.030532732605934143, -1.6475379467010498, -2.1707637310028076, 0.09643141180276871, 0.3129183053970337, 0.6507279872894287, 1.2095204591751099, -0.6072899103164673, -0.8535566329956055, -0.31935837864875793, 0.6912938952445984, 0.4083699882030487, 0.1724114567041397, 0.12713083624839783, 1.0425851345062256, 0.04190243408083916, -1.327589988708496, 0.20321913063526154, 0.5861907601356506, 1.5469437837600708, 1.6536608934402466, -0.9872068166732788, -0.8093653321266174, -0.5527794361114502, 0.28655335307121277, 0.3696664571762085, 1.0490906238555908, 0.28948521614074707, 0.017557725310325623, 0.21658097207546234, 0.01612691581249237, -0.3483808934688568, 0.09883908182382584, -0.23394472897052765, 0.6540542840957642, 0.6196479797363281, 0.17241813242435455, -0.2677583694458008, -1.1559135913848877, -0.10556977987289429, 0.548698902130127, 0.5326240062713623, -0.18886174261569977, 0.17779554426670074, -0.16072142124176025, 0.11273571103811264, 0.2199399471282959, 0.2436152547597885, -0.21212530136108398, 1.3704955577850342, 1.147547721862793, -0.32690444588661194, -2.0590946674346924, 0.8077886700630188, 0.8334250450134277], [-1.1129322052001953, -0.35451531410217285, -0.1517079621553421, 0.19769003987312317, -0.17097672820091248, -3.695563554763794, 1.4835816621780396, -0.5784252285957336, -0.9011561274528503, 1.3087798357009888, -0.4921950697898865, -0.8382748365402222, -0.5381702184677124, 1.3085883855819702, -0.6157656311988831, 1.3660686016082764, 1.2253040075302124, 1.4821586608886719, -0.9940067529678345, -2.7407734394073486, -0.5903101563453674, -0.9915605783462524, 0.237108051776886, 2.0134849548339844, 1.250086784362793, -0.2742677330970764, 0.667169988155365, -0.2762608230113983, -0.01398602593690157, 0.9018294215202332, 0.028244204819202423, -0.8553952574729919, 0.18177667260169983, -0.045592352747917175, -0.6864873170852661, 0.5090013146400452, -0.45164579153060913, -0.12742124497890472, 1.2364221811294556, 0.3475519120693207, -0.20365144312381744, 0.1718226969242096, 0.05120580270886421, -0.46061092615127563, -0.8829839825630188, -0.26148906350135803, -0.633978545665741, 0.311731219291687, 0.3687703013420105, 0.27792203426361084, -0.12344931066036224, 0.63929682970047, -0.06645213812589645, 0.7703503370285034, -0.04284118115901947, 0.3574428856372833, 0.3715660274028778, 1.0655975341796875, 0.5892598032951355, -0.8939375281333923, -0.273952841758728, 0.017640311270952225, -0.622687816619873, 0.8920512795448303], [1.309168815612793, 0.06818678975105286, -0.5453922748565674, -2.887690544128418, 2.350755214691162, -1.8249250650405884, -1.001868724822998, 0.4861507713794708, -0.8260335922241211, -0.2879420220851898, 1.125993013381958, 1.0059316158294678, 0.7120426893234253, 0.29490259289741516, 0.15210816264152527, -0.46837249398231506, 0.04831536114215851, -0.5934469699859619, -0.2541173994541168, -0.43455567955970764, -0.2628784477710724, -0.3015539050102234, 0.6503738760948181, -1.1651495695114136, -0.030727047473192215, -0.23411893844604492, -0.16145062446594238, 0.2822791635990143, 0.08641094714403152, -0.8776418566703796, 0.05083492025732994, 0.8035666942596436, 0.496409147977829, -0.21912255883216858, 0.5743108987808228, -0.0939365029335022, 0.6423377990722656, 1.2698709964752197, -1.0714689493179321, -0.26789382100105286, 0.3701886534690857, -0.4000439941883087, -1.0677143335342407, -0.45158466696739197, 0.4798581004142761, 0.920490026473999, -1.2613892555236816, -2.3703722953796387, -1.237140417098999, -1.245025634765625, 0.27308326959609985, 1.457351803779602, 0.7896330952644348, -0.8836512565612793, 1.2646735906600952, 2.573338508605957, 1.294912576675415, 0.4004548192024231, 0.6252992153167725, 2.3839006423950195, -0.48005303740501404, -1.675011157989502, 0.27457740902900696, 1.5747956037521362], [-1.5174663066864014, -2.365785598754883, 0.4590984582901001, -0.2954200208187103, -0.36271533370018005, 0.598661482334137, -0.6829415559768677, -0.6916465759277344, -0.8693501949310303, -0.7909719944000244, 0.24057148396968842, 1.244839072227478, -1.2380661964416504, 0.036464106291532516, -1.4821044206619263, 0.05478638783097267, 0.6300126910209656, -0.4866705536842346, 0.4312461018562317, 0.057313643395900726, 0.5895605087280273, -1.2860538959503174, -1.0761892795562744, 1.281275749206543, 0.4611000120639801, -1.8827404975891113, 0.749900221824646, 0.4059767425060272, 0.1266786903142929, 0.3495580554008484, -0.525942862033844, 0.1722758561372757, 1.3031456470489502, 1.8132703304290771, -1.7561002969741821, -1.3621025085449219, -0.0712011456489563, -0.5170537829399109, -0.19616851210594177, -1.0364885330200195, -0.10542130470275879, 0.3954361081123352, -0.10729202628135681, -0.055133216083049774, 0.3995935618877411, 1.5406054258346558, 1.1174752712249756, 1.1880550384521484, -0.1491917222738266, 0.03550615906715393, -1.1837061643600464, -0.6874975562095642, 1.092590093612671, -0.5252256393432617, -0.9731999635696411, -0.9963322877883911, -0.0781463235616684, 1.1394319534301758, -0.2129150927066803, -0.10677400231361389, -0.0816684439778328, 0.5785807967185974, -1.5410138368606567, -0.210543692111969], [0.39491453766822815, 0.07148043811321259, -0.9450775384902954, -0.2996337413787842, 0.11217563599348068, -0.5961574912071228, 0.05161156877875328, 0.3840973377227783, 0.9184691905975342, 0.03419053927063942, 1.2974512577056885, 0.2216307520866394, -0.5789369940757751, -0.6155633330345154, 0.00942143239080906, -0.6005106568336487, 0.35557231307029724, 1.5846836566925049, 0.22187070548534393, 1.0701054334640503, -0.9685856103897095, -0.6609920859336853, 0.29316943883895874, 0.3875181972980499, -0.40973418951034546, 0.12721754610538483, -0.1311332732439041, 0.14948208630084991, -0.6682240962982178, -0.27310657501220703, -0.393338143825531, 0.12250962853431702, 1.0073354244232178, 1.5188590288162231, -0.032819800078868866, -0.6224623322486877, -0.21161432564258575, -0.7123188376426697, 0.0024567916989326477, 0.693367063999176, 0.18972469866275787, -0.39504000544548035, -0.4407612085342407, -0.037211060523986816, -1.3795322179794312, -1.0389963388442993, -0.3978179693222046, 0.849006712436676, -0.10140664130449295, 0.5093932747840881, -0.0653785690665245, -1.2408790588378906, -0.3659442365169525, 0.9480581283569336, 0.9642295837402344, 0.4369867444038391, 0.08284652978181839, -2.1456334590911865, 0.5294343829154968, 0.4181801378726959, -0.44129064679145813, -2.2630667686462402, -1.2533619403839111, 1.8360379934310913], [-1.0366971492767334, 0.2739439606666565, -1.2342311143875122, -0.3411892354488373, 0.07155343890190125, 0.40089601278305054, -0.053096890449523926, -0.47131890058517456, -0.5083576440811157, 0.036711178719997406, 0.11914219707250595, 0.48062384128570557, -0.47938403487205505, -0.469097763299942, -0.4136485755443573, -0.09522778540849686, 0.08208222687244415, -0.16104787588119507, -0.04755677655339241, -0.2742256820201874, 0.5815955400466919, -0.3060148358345032, -0.6061951518058777, 0.1733151078224182, 0.3195957541465759, -0.376600444316864, 0.34392064809799194, -0.5753667950630188, 0.2945237457752228, -0.37278640270233154, 0.12852004170417786, 1.04798424243927, 0.09155643731355667, -0.2353932112455368, 0.24949759244918823, 1.5305554866790771, -0.9618898630142212, -2.1726431846618652, 0.9837385416030884, 1.8813440799713135, -1.3670194149017334, -2.799909830093384, 0.553787887096405, 2.3086888790130615, -0.3866090178489685, -0.9709728956222534, 1.4046275615692139, 1.8906270265579224, -0.909763514995575, -1.7709360122680664, -0.4205611050128937, 0.8005231022834778, 0.04377712309360504, -1.216603398323059, -0.22610308229923248, 0.1281370222568512, 0.21030527353286743, 1.0993354320526123, 0.2691914141178131, 0.07669486850500107, 0.243930384516716, 0.3522510826587677, 0.07154668122529984, 0.3798463046550751], [-0.6063275337219238, -1.9885350465774536, 1.3993020057678223, 0.13007639348506927, -0.4036155641078949, -0.16617389023303986, -1.5429123640060425, -0.39028996229171753, 0.9395188093185425, 0.3768356442451477, -0.9856061339378357, -0.022345663979649544, 0.10628227889537811, -0.012777667492628098, 0.5066084265708923, -0.24312879145145416, -1.0788954496383667, -1.0802515745162964, -1.3103976249694824, -0.26405826210975647, -0.7162255048751831, -0.7077891230583191, 0.6039628386497498, 1.0469211339950562, -0.8183050751686096, 0.4888491630554199, 0.30120810866355896, 1.8311775922775269, -0.4519100785255432, -0.6069547533988953, 1.5252110958099365, -0.9394075870513916, -0.994040310382843, 1.1693607568740845, 0.4764586091041565, -1.9451329708099365, -0.7862190008163452, 1.756837010383606, 0.7431356310844421, 0.21151971817016602, -0.851919412612915, -0.04118500277400017, 0.48489701747894287, 1.2012629508972168, -0.2931220829486847, 0.3776983618736267, -0.6250442862510681, 0.6323701739311218, 0.5835234522819519, 0.38468000292778015, -0.839364230632782, -1.0807113647460938, -0.285622239112854, -0.6951144933700562, -0.34600356221199036, 0.6735879182815552, 0.1830810159444809, 0.38452866673469543, 0.10092223435640335, -1.4069857597351074, -0.9517901539802551, -0.52277672290802, -1.9539610147476196, -0.8249818086624146], [-3.751014232635498, 2.5428948402404785, -2.7036547660827637, 0.2626279592514038, -0.2783709764480591, -0.35536831617355347, -0.28333309292793274, -0.6798875331878662, 1.7707809209823608, 0.3579177260398865, 0.6849743127822876, 1.598809003829956, -0.6257171034812927, -1.7485504150390625, 0.7811489701271057, 0.0887451171875, -0.17820796370506287, 0.5973120927810669, -0.2760286033153534, 0.11039583384990692, -0.5623933672904968, -1.7134851217269897, 0.4011348783969879, 0.9676210880279541, 0.19386275112628937, -0.9412738680839539, 0.15272125601768494, 0.7904897332191467, -0.022900313138961792, -1.1206332445144653, 1.169501543045044, 1.163796305656433, -0.7216671705245972, -0.31416285037994385, 0.6266914010047913, 0.29793787002563477, 0.3940410017967224, 1.8286254405975342, 0.13950255513191223, -0.6271923780441284, -0.07509925216436386, 0.29711800813674927, -0.6898986101150513, -1.302756667137146, 0.08957986533641815, 0.10315819829702377, 0.5373379588127136, 0.7972142696380615, 0.2991046607494354, -0.9034008383750916, 1.5316015481948853, 3.5487558841705322, 0.23626820743083954, -1.318756341934204, 0.6309173107147217, 1.5620516538619995, -0.21422219276428223, -1.1784107685089111, 0.37273961305618286, 0.4095654785633087, -0.49577441811561584, -0.1333937793970108, 1.119481086730957, -1.6144741773605347], [1.6831579208374023, -1.0493959188461304, -0.31149280071258545, 0.29656603932380676, 0.7397460341453552, 0.1874827891588211, -0.19161996245384216, -0.02005462907254696, -0.5986051559448242, 0.20755258202552795, 1.3722848892211914, -0.1733919233083725, -0.5992462635040283, -1.01776123046875, 0.48982083797454834, 1.5035979747772217, 0.2949957549571991, 1.1254991292953491, 0.6382407546043396, 0.8578668236732483, -0.3231196999549866, -1.3448207378387451, 0.0459766648709774, 0.7142170667648315, -0.11152242124080658, -0.4544944167137146, -1.2384181022644043, 0.08967968821525574, -0.4651479721069336, 0.19027069211006165, 0.23584939539432526, 0.39059120416641235, 0.15050046145915985, 0.5209738612174988, -1.6171624660491943, -1.5747207403182983, 0.6845385432243347, 0.32371583580970764, -1.0022263526916504, -0.2647624611854553, 1.1816803216934204, 1.210756778717041, -0.1918010711669922, -0.513096034526825, 0.011727736331522465, -0.7351053953170776, -1.3731095790863037, 0.7568769454956055, -0.5392929315567017, -0.944232702255249, 0.440913587808609, 0.7699439525604248, 0.2013988047838211, 0.7432835102081299, 0.1961866021156311, 0.06275548040866852, 0.9423928260803223, -0.07644647359848022, -1.2921960353851318, -1.8873215913772583, 0.5820554494857788, 2.5329620838165283, -1.9456185102462769, -2.3390536308288574], [-1.2678574323654175, -0.5533116459846497, 0.28090864419937134, 0.8835408687591553, -0.4704185426235199, -0.5372702479362488, 0.3614087998867035, 0.7486056685447693, 0.6231931447982788, -0.6894755959510803, 0.33651024103164673, -0.5356311798095703, 0.22402407228946686, -0.0758594200015068, 0.45841264724731445, 0.8833385705947876, -0.9268132448196411, -0.9985020160675049, -0.4910318851470947, -0.26282602548599243, 0.09732066839933395, 0.3033442795276642, 0.2339908331632614, -1.3110893964767456, -0.15036647021770477, 0.8786548972129822, 0.24450966715812683, -0.3360476791858673, 0.35398635268211365, -0.21420899033546448, -0.03221548721194267, -0.28125104308128357, 0.32369834184646606, 0.47988471388816833, 0.31426411867141724, 0.13880465924739838, 0.23806020617485046, 1.2885689735412598, 0.4886796772480011, -0.7598837614059448, 0.10926760733127594, -0.7138437032699585, -0.3094184994697571, -0.41260895133018494, -0.6234309673309326, -0.03408696502447128, -0.9866848587989807, -1.1689294576644897, -0.7068594098091125, -1.1037484407424927, 0.8863978385925293, 0.8497129678726196, -0.8703425526618958, 0.19729919731616974, -2.307935953140259, -0.8962262272834778, -3.9515364170074463, 1.3183919191360474, -8.61491584777832, -0.9187031984329224, -8.801596641540527, 1.4140294790267944, -1.5176620483398438, -0.6372321844100952], [2.1068553924560547, -3.0078916549682617, 0.4335310459136963, -2.4867677688598633, 0.6782311201095581, -2.1177306175231934, 0.972974956035614, -0.08584771305322647, -0.24066299200057983, 0.6622562408447266, -1.107528567314148, -0.40474459528923035, -0.07811039686203003, -0.12261483073234558, 0.20031572878360748, -0.34392133355140686, 0.0214461088180542, -0.10401970893144608, 0.2775566279888153, 0.8034824132919312, 0.8646737933158875, 0.916739284992218, 0.3941759467124939, -0.20269188284873962, -0.07936078310012817, -0.022836290299892426, 0.17870043218135834, -0.5401898622512817, -0.25634637475013733, -0.5852434635162354, -0.40913423895835876, -0.6489984393119812, 0.3457621932029724, 0.41469889879226685, -0.14258988201618195, -0.5021225810050964, 0.16522866487503052, -0.22164268791675568, -0.1542065292596817, -1.0527091026306152, -0.2932716906070709, -0.8550525307655334, 0.295044869184494, 0.0020816433243453503, 0.2519984245300293, 0.9121996164321899, 0.18111608922481537, -0.056916601955890656, -0.33889713883399963, 0.1931440681219101, -1.1066067218780518, -1.5165824890136719, 0.23972341418266296, 0.5500918030738831, -1.0616074800491333, -1.3615974187850952, 0.36022791266441345, 1.335034966468811, 0.6084632873535156, 0.2464745044708252, 0.759979248046875, 0.07868210226297379, -0.9459354877471924, 0.9323928356170654], [1.6534054279327393, 0.6471906304359436, 0.11698232591152191, 2.805403470993042, -1.1907272338867188, -2.8680307865142822, 0.5650493502616882, 0.055200621485710144, 0.13761718571186066, 0.4286547601222992, 0.34246695041656494, 0.9999852180480957, 0.7761070728302002, -0.9229025840759277, 1.344669222831726, -0.30734071135520935, -1.264807105064392, -1.9693080186843872, -0.5585810542106628, 0.3164723813533783, -1.075072169303894, -1.392393708229065, 0.3612995445728302, 0.3653487265110016, -0.4173453450202942, -0.9520530104637146, -0.36386919021606445, 0.28317275643348694, 0.7319363355636597, 1.421955943107605, -0.11486557126045227, -0.24890974164009094, 0.316013365983963, 0.6875764727592468, 0.718826413154602, -0.025348473340272903, 0.2532372772693634, 0.1317189782857895, -0.7853795886039734, -0.5100685358047485, -0.6014484167098999, -0.028844613581895828, -0.33580291271209717, 1.1177644729614258, 0.2727780044078827, -0.11907952278852463, 0.6859728693962097, 0.10459355264902115, 0.27036407589912415, 0.615917444229126, -0.3006265163421631, -0.4509141147136688, 0.22584745287895203, -0.9320199489593506, -0.6408057808876038, -0.762035608291626, 0.3749925196170807, 0.08801931142807007, -0.6440917253494263, -0.2996479868888855, -0.2782130241394043, -0.3696993291378021, 0.6432098746299744, 0.4238024652004242], [2.9492108821868896, 0.7209192514419556, -1.1174777746200562, 1.3340762853622437, -0.05427519977092743, 0.7368870377540588, 0.0719352588057518, 0.7592357397079468, -0.7343181371688843, -0.7823262810707092, 2.347594738006592, -0.11156844347715378, 0.13839830458164215, -0.012050426565110683, -0.7065402865409851, 0.806434690952301, 1.030455470085144, 0.4822272062301636, -1.1694186925888062, -1.5486348867416382, -0.43882155418395996, -1.2923765182495117, 1.1980397701263428, 0.16643409430980682, -0.2793118953704834, 1.3661807775497437, 0.7429618835449219, 0.2745673656463623, -0.2968943417072296, -1.0922175645828247, 0.04165153205394745, 1.9548314809799194, -1.0345408916473389, -1.4860036373138428, 0.038880906999111176, -1.0134055614471436, 0.07172415405511856, -0.026257220655679703, -0.4007200300693512, -0.4048902988433838, -0.6107903122901917, -1.2756333351135254, 0.23032107949256897, 0.21267490088939667, 0.80190509557724, 1.7664563655853271, 0.5936797857284546, 1.6130203008651733, 0.5472036600112915, -0.2379087656736374, 0.8954010605812073, 0.6163491010665894, 0.8844727873802185, 1.2616283893585205, -1.537500023841858, -2.9907891750335693, -1.4268001317977905, -1.270794153213501, 1.2888292074203491, -0.23240706324577332, 1.1842687129974365, 1.1292190551757812, -2.1104726791381836, 0.16417895257472992], [-0.5500787496566772, 0.4538212716579437, -0.0797736793756485, 0.4451972246170044, -0.5954695343971252, -1.4365012645721436, 1.5623937845230103, 2.3839645385742188, -2.3618812561035156, -2.765300750732422, 0.5187126398086548, 1.4282264709472656, -0.9379037618637085, -1.6605602502822876, 0.002709798514842987, 1.9713996648788452, -0.2717803716659546, -0.6509034037590027, 0.34819406270980835, 0.544854462146759, 0.8524642586708069, 0.6689318418502808, -0.8182709217071533, -0.5571114420890808, -0.05504642426967621, 0.12398830056190491, 0.5655970573425293, -0.6094411611557007, 0.5734626650810242, 0.21992561221122742, 0.2242637574672699, 0.5919187664985657, -0.2724493741989136, -0.2929052412509918, -0.2490025758743286, 1.1212104558944702, -0.44066524505615234, -0.2618516981601715, 0.435628205537796, -0.12771879136562347, 0.053291045129299164, 0.6195196509361267, -0.31660282611846924, -0.771961510181427, 0.3804301619529724, 0.6605335474014282, -0.22165977954864502, -0.6894916892051697, -0.31605270504951477, -0.0010649235919117928, 0.38691967725753784, 0.40595561265945435, -0.36409997940063477, -0.3016553521156311, 0.713087797164917, 0.7857837677001953, -0.6221733093261719, -0.12733034789562225, 0.8202603459358215, 0.6928645968437195, -0.30719608068466187, -0.938073992729187, -0.09906396269798279, 1.5488544702529907], [-1.9092131853103638, 1.8000526428222656, 0.23193317651748657, -2.9791343212127686, 1.674019455909729, -1.2310574054718018, 0.02960566058754921, -0.9029318690299988, 0.6849400997161865, 0.007655670866370201, 0.13727505505084991, 0.8846321105957031, 0.013164381496608257, -0.24075761437416077, -0.3367920517921448, 0.5331583619117737, -0.9872254133224487, -1.2945667505264282, 0.007710915058851242, 0.3786829113960266, -0.6846755146980286, -0.5624342560768127, 0.2551394999027252, -0.10615271329879761, -0.09026086330413818, -0.02516460418701172, -0.6690267324447632, 0.8383615612983704, -0.23567692935466766, 0.5223821401596069, 0.13694417476654053, -0.5203912258148193, -0.36851975321769714, -0.16798339784145355, -0.06656768172979355, -0.48329275846481323, -0.4040895402431488, -0.12201035022735596, 0.28168392181396484, 0.16212919354438782, 0.12737610936164856, -0.12306264787912369, 0.9913638234138489, 0.757219135761261, -0.24797555804252625, -0.7335232496261597, 0.2121029645204544, 0.33253413438796997, 0.17728610336780548, 0.11564034968614578, 0.42122066020965576, 0.35593733191490173, 0.5346450805664062, 0.27833691239356995, 0.0013511311262845993, -0.7053000330924988, -0.06744211167097092, -0.8587897419929504, 0.08206958323717117, 0.10092354565858841, 0.2557985484600067, 0.7391917705535889, -1.108607530593872, -1.3392412662506104], [0.7491009831428528, 1.0878549814224243, -1.3548856973648071, 2.214705467224121, -1.9768030643463135, -0.9349542260169983, -0.15108256042003632, 0.8106623888015747, 1.3406049013137817, -0.36131051182746887, 0.008252028375864029, 1.534981608390808, -1.4651987552642822, -0.7367843985557556, -0.6571205854415894, 0.04516320675611496, 0.8949310183525085, 1.0901600122451782, -0.15534041821956635, -0.7260046601295471, 0.5371152758598328, 1.5501527786254883, 1.0504027605056763, 0.7211050391197205, -0.13123255968093872, -0.8189155459403992, -1.0089976787567139, -0.5955851674079895, -0.5929976105690002, 0.20965752005577087, -0.08102584630250931, -0.7045472264289856, -0.47041359543800354, -1.1194288730621338, 0.6071009039878845, 1.0214402675628662, -0.45729807019233704, -1.1110432147979736, 0.41802123188972473, 0.21009832620620728, 0.17828263342380524, -0.609431266784668, 0.5628048777580261, 0.06381121277809143, -0.6107824444770813, 0.44576296210289, -0.697693943977356, -0.9592109322547913, 0.4309220612049103, 1.0691848993301392, -0.20966504514217377, -0.9659916162490845, 0.14109526574611664, 0.3339112102985382, 0.06030803918838501, -0.34600892663002014, 0.41474154591560364, 0.5277169942855835, 0.4123048484325409, 0.19695064425468445, 0.4966152012348175, 0.2729833424091339, -0.19085204601287842, -2.144885301589966], [1.0484747886657715, 1.3549362421035767, -0.6184177398681641, 1.4245738983154297, -0.5903961658477783, 0.19279886782169342, 0.32005342841148376, 0.45624402165412903, -1.2598503828048706, 0.19811813533306122, -1.433284044265747, -0.2250746339559555, 0.14951622486114502, 0.44907674193382263, -0.8264362215995789, 0.021819058805704117, 1.2198649644851685, 0.6993421316146851, 0.34850937128067017, -0.37557753920555115, 1.1138638257980347, 1.1918374300003052, -0.2502531409263611, 0.035420969128608704, 0.23725564777851105, 0.09406106173992157, -0.07629194855690002, -0.583480179309845, 1.1444692611694336, 0.9854565858840942, -0.6325769424438477, -1.9456578493118286, -0.21490170061588287, 0.15968604385852814, -0.9759211540222168, -1.3365795612335205, 0.511756420135498, 0.6225848197937012, -0.6769881844520569, -0.8533888459205627, 0.4628821611404419, 1.1246986389160156, 1.001957654953003, -0.16167014837265015, 0.33147457242012024, -0.3336310088634491, 0.8732395768165588, 0.9696470499038696, -0.13539308309555054, -0.5043699741363525, 0.14937816560268402, 0.6095741987228394, 0.33797019720077515, -0.6157340407371521, 0.41161713004112244, 1.8266667127609253, -0.9121308922767639, -0.7483698129653931, -0.017848385497927666, 0.6423994302749634, -1.0401320457458496, -0.6418161988258362, -0.008256079629063606, -0.24386420845985413], [2.0057809352874756, 1.752637505531311, -1.3753023147583008, 0.04669313132762909, 1.7638587951660156, -0.23413054645061493, -0.012698047794401646, -0.18966799974441528, -0.5153251886367798, -1.3248761892318726, -0.548897922039032, 0.941410481929779, -0.21697385609149933, 0.5426716208457947, 0.24002008140087128, -1.4227455854415894, 0.04930134117603302, 1.3152819871902466, 0.42570313811302185, 0.056413501501083374, 0.6466521620750427, 0.6092811822891235, -1.299923062324524, 0.8922445774078369, 1.6509504318237305, -2.0264089107513428, -0.3916466534137726, 1.8082197904586792, -1.0111585855484009, 0.33326616883277893, -0.03476391360163689, 2.1124298572540283, 0.11355295777320862, -0.3777715563774109, -1.0587315559387207, 0.766411542892456, 0.51114821434021, -0.8964473605155945, -0.3371849060058594, -0.15877239406108856, -0.11604484170675278, 1.0612415075302124, -1.1701020002365112, 0.14909633994102478, 0.6320257782936096, -0.40258386731147766, -0.3673236072063446, -0.16867315769195557, -0.7424654364585876, 0.5212734937667847, -0.31326162815093994, -0.915362536907196, 0.8367784023284912, -0.3959659934043884, -0.5644041895866394, -0.7916494011878967, 0.8686989545822144, -0.1381654143333435, -1.210552453994751, 0.847835123538971, -0.1920643001794815, -0.5137919783592224, -2.103931427001953, -1.047554850578308], [0.3768461048603058, -0.3581918776035309, -0.16654206812381744, -1.8568848371505737, 0.1414767950773239, 0.354589581489563, -0.017915816977620125, 4.1458048820495605, 0.9640180468559265, -1.7574493885040283, 1.484385371208191, 1.4706788063049316, -0.6087834239006042, 0.7363491058349609, 0.22170928120613098, -0.2943658232688904, -0.19089806079864502, 0.3008379340171814, -2.3434016704559326, -2.8213160037994385, -2.2359721660614014, 0.975156307220459, 0.6234991550445557, 1.8052868843078613, -0.14050890505313873, -0.16177619993686676, 0.43288731575012207, 0.9475202560424805, -0.26425960659980774, 0.44781413674354553, -1.1339191198349, -1.6955715417861938, -0.5270794630050659, -0.9119511842727661, 1.1216398477554321, 1.0129482746124268, -0.3044576644897461, -0.2757081091403961, 0.06328696757555008, 0.8793244957923889, -0.5308932662010193, -0.9833984375, 0.09987719357013702, 2.4176254272460938, -0.9540678858757019, -0.2201433628797531, 0.8237027525901794, 0.614332377910614, 1.947588324546814, 1.1350743770599365, -0.19608351588249207, -0.7849332690238953, -1.0117247104644775, 0.17528767883777618, -1.315047264099121, -0.39726388454437256, -1.0899155139923096, -0.03873675316572189, -1.1553045511245728, -0.5763515830039978, -0.6934992074966431, -1.0835554599761963, -0.5054437518119812, -0.85658198595047], [-0.26549792289733887, 0.5440400242805481, -0.04132627323269844, -0.08878272771835327, 0.7797847986221313, 0.3435819447040558, -0.1647787243127823, -0.11712057143449783, 0.3973740339279175, -0.5089895129203796, 0.9047340750694275, 0.5737534761428833, 0.188227578997612, 0.08204370737075806, 0.4072054326534271, -0.8597860336303711, -0.027456719428300858, 0.7362614274024963, -0.42311185598373413, -0.9928207397460938, 0.4913443326950073, 1.142588496208191, -1.007236123085022, -1.8993370532989502, 1.7013180255889893, 3.042846202850342, -0.7018865942955017, -2.2918286323547363, 0.15996074676513672, 1.960784912109375, -0.7633053064346313, -0.6061185598373413, 1.1424756050109863, 1.0825161933898926, -0.6062761545181274, -0.9810159206390381, 0.5990958213806152, 0.9441179633140564, 0.005928655155003071, -0.672697126865387, -0.3427092730998993, -0.37606289982795715, -0.5128065347671509, 0.3751271665096283, -0.22602969408035278, 0.1255561113357544, 0.18026265501976013, 0.23242150247097015, -0.4084802269935608, -0.4386654794216156, 0.5317015051841736, 0.3461489975452423, -0.26559963822364807, -0.5149798393249512, -0.34306100010871887, -0.9545652270317078, -0.15100230276584625, -0.09506974369287491, 0.11241739988327026, 0.3235974609851837, 0.7370539307594299, 0.10897162556648254, 0.7205150723457336, 0.23409071564674377], [-0.7933138012886047, 3.2530486583709717, -2.2136611938476562, -1.154713749885559, 0.38745003938674927, 1.549249291419983, 0.1900242418050766, -0.8995692133903503, -1.2850513458251953, 0.6611925363540649, -0.10891255736351013, -1.9724889993667603, 0.019805999472737312, 0.19379661977291107, -0.01597744971513748, 0.6289675235748291, 0.14019353687763214, -0.6416246294975281, -0.12063945829868317, -0.13608159124851227, 0.4429430067539215, -0.2851635217666626, -0.13419418036937714, -0.35246703028678894, -0.9312105774879456, -0.2737998962402344, 0.8026723265647888, -1.0896775722503662, 0.6959576606750488, 0.24149392545223236, 0.43218302726745605, -0.02254781499505043, 0.0852021723985672, -0.09885632991790771, 0.34359821677207947, 0.04773325473070145, -0.11804863065481186, -0.3987979292869568, -0.6274831891059875, -0.5416236519813538, 0.09028802812099457, 0.9125508069992065, 0.07622282207012177, -0.5791428685188293, 0.4949283301830292, 1.6337175369262695, -0.8835508823394775, -0.5523855686187744, 0.5006703734397888, 0.9978110790252686, -0.7964109778404236, -0.7407541871070862, -0.43299153447151184, -0.013607478700578213, -0.6914418339729309, -0.26472318172454834, 0.05956878140568733, 1.4099888801574707, -0.22076527774333954, -1.5376415252685547, -0.4750039279460907, 0.580335795879364, -2.937772750854492, 1.9369401931762695], [-0.8030156493186951, -0.028236079961061478, 1.2553231716156006, -2.291346549987793, 0.15387701988220215, -1.075730562210083, 3.3409180641174316, -2.2115087509155273, 0.4560423791408539, -0.07282305508852005, -0.3851456344127655, -1.579445719718933, 1.1410139799118042, -2.246584415435791, 1.5253827571868896, -1.3886399269104004, -1.1836018562316895, -1.0833661556243896, 1.1564531326293945, 0.07537893950939178, 0.48810964822769165, -1.6347346305847168, -0.805850088596344, 0.07524030655622482, 0.695703387260437, 1.2001092433929443, 0.7316094040870667, -1.5511574745178223, 0.17634540796279907, -1.476966381072998, -1.2240582704544067, -0.3821275532245636, 0.47599369287490845, -0.6147424578666687, -0.5521302223205566, -0.31791940331459045, 1.9612735509872437, 1.5117826461791992, -1.3959295749664307, -0.7587599158287048, 0.7319592833518982, 0.6059754490852356, -1.0034406185150146, -1.2276711463928223, -0.07908571511507034, -1.331602931022644, 1.465185523033142, -0.3408474624156952, 0.8392747640609741, 0.133823424577713, -0.3062046468257904, 0.7345029711723328, 0.19913218915462494, -0.6390206813812256, -0.1693085879087448, 1.2975823879241943, -0.7164809107780457, 1.6954976320266724, 0.12982653081417084, -0.3883490562438965, 0.7926679849624634, 1.013369083404541, 1.7257699966430664, -0.64228755235672], [0.16686691343784332, -1.2502833604812622, -0.19703373312950134, -0.7027764916419983, -0.34082111716270447, -0.13515324890613556, 0.19254498183727264, 0.854997992515564, 0.18786992132663727, 0.2136768102645874, 0.5644724369049072, -0.6427250504493713, 0.6462053060531616, 1.3160713911056519, -1.0610848665237427, -1.0822681188583374, 0.6162109971046448, 2.374600887298584, -2.50584077835083, -2.5500149726867676, -0.0819629654288292, 1.7363113164901733, -0.9859511852264404, -1.0761781930923462, -1.2977302074432373, -1.0152904987335205, -0.950853705406189, 0.714759111404419, 0.8311852216720581, 0.8876969814300537, -0.2665889263153076, 0.21663428843021393, -0.046385444700717926, 1.2291654348373413, -0.4884275197982788, 0.31526103615760803, -0.36918649077415466, -0.05454523116350174, -1.087746024131775, -0.6106123924255371, 0.9635469913482666, 1.0901215076446533, -1.2688007354736328, -0.21549485623836517, 0.4789881408214569, 0.844918966293335, -0.23595578968524933, -0.3018537163734436, 0.11761987209320068, 0.15369990468025208, 0.3566918969154358, 0.21742995083332062, -0.4879128932952881, -0.5131087303161621, 0.7282872200012207, 0.26514917612075806, -0.2241644263267517, -1.0552171468734741, -0.311466783285141, -0.04939091205596924, 0.0841190442442894, -0.46734941005706787, -0.6234232783317566, -0.5765441060066223], [-0.12069607526063919, 1.651895523071289, -0.791283369064331, -0.7666234374046326, -1.0386412143707275, -0.31668820977211, -0.1500706821680069, 0.1807679533958435, -0.49755457043647766, -0.07736625522375107, -0.039674062281847, -0.07885472476482391, 0.2662816345691681, 0.381151020526886, -0.57951819896698, -0.22616922855377197, -0.11017916351556778, 0.19630911946296692, 0.05842107534408569, -1.1395248174667358, -0.19109506905078888, 0.656096875667572, 1.3281909227371216, -0.5637296438217163, -0.46435680985450745, -0.7222957611083984, -1.3498971462249756, 0.08119702339172363, -0.560853898525238, -1.5693179368972778, 0.023865461349487305, 0.011777201667428017, -0.16035328805446625, 1.3307902812957764, 0.9790812730789185, 0.6127966642379761, -1.0770351886749268, 0.017071299254894257, -0.49851998686790466, 0.8470240235328674, -0.456696093082428, -0.9820642471313477, -1.595391869544983, -1.0244089365005493, 0.6798661947250366, -0.09752657264471054, -0.4567279517650604, -0.01528814248740673, 0.10968320816755295, -0.618657648563385, -0.6819489002227783, 1.1121877431869507, -0.7161144018173218, 0.12428303062915802, 0.2723403871059418, -0.5032578706741333, 0.5280435085296631, 0.40357938408851624, 0.45264139771461487, 0.4682336449623108, 1.2277077436447144, 0.9639732241630554, -1.1306381225585938, 0.28487062454223633], [-0.7777217030525208, 0.05192048102617264, -1.139024257659912, 1.509205937385559, -0.13064846396446228, -1.4565941095352173, -1.1209028959274292, -0.17342065274715424, -1.4887884855270386, -1.044390082359314, -0.8236123919487, -0.6730030179023743, 0.9292227029800415, 0.8453857898712158, 0.15761691331863403, 0.1446981281042099, 1.6207879781723022, 0.6745204925537109, 1.4272150993347168, 0.31602591276168823, -1.3073426485061646, -2.821882963180542, -0.21643489599227905, -0.19116173684597015, 